solver_type L2R_L2LOSS_SVC_DUAL
nr_class 6
label 1 2 3 4 5 6
nr_feature 21248
bias -1
w
-0.005686554077934321 -0.004247080773338887 0.002271890792956289 -0.002887785092096045 8.734111185423017e-05 0.0058179394912343 
-0.002511683360013653 -0.001699413739794376 0.004627475820715597 -0.002505819131534097 -0.002925619357343149 0.002220553083798117 
-0.001556669015775958 0.005094920708530577 0.003615141290855593 -0.003889131210948035 -0.00312668033247055 0.0004282092828882512 
-0.00167134336014065 0.002194527289434806 0.001568872028086562 -0.008977861555283502 -0.002163929480471953 0.002524608141604688 
-0.00191317129194397 -0.00362185105047484 0.007030772708900629 -0.003494723265725469 0.004742697155168066 -0.002287873350205177 
-0.000615323868648184 0.0006604360210562595 0.002257748922099531 -0.002361851814189044 -0.0008352050795464204 -0.0001956711279856751 
-0.002549471765883178 0.001352870555726124 0.0003154528193089607 0.0004269384230299854 -0.001118631013447502 0.001352454155518175 
-0.0007071207857130801 0.0002927615792705071 0.001471442927007321 -0.0008980379967628425 0.0002503292356442229 -0.0004321239800580924 
-0.0009486248539119728 0.003521492682926776 0.00253188129513607 -0.003128140272299731 0.001835102556676181 -0.003783918058921071 
-0.0009503109864261211 -0.001037183798212903 0.004500470224718995 -0.00231304441818667 -0.0008305820077674042 -0.0002896082506333895 
-0.001344319611321545 0.001929965655188474 0.00308085016092918 -0.003412408947700752 -0.001165262840426855 0.0002473218858676886 
-0.002308414835070223 0.0006447857064531745 0.0001188754140979495 -0.002283817764770691 0.002472645004572119 0.001824822026368841 
-0.001583124645996663 0.001826846531881261 0.0003680784500381632 -0.003821221877653174 0.004391008754172949 -0.0001590444937227389 
-0.00118923590845045 0.001552047138975331 0.000552826618957402 -0.001260029791885236 -0.0002152672500264095 0.000445692303096995 
-0.001312499978729277 0.002355671359521567 0.001072571417455074 -0.001771755828352295 -0.0004850817928373978 -7.959989745830405e-05 
-0.008412407170594886 -0.009248541078273623 0.01141530331112994 0.003417508802541686 0.003403857197827859 -0.005483405323306782 
-0.005450084562590282 -0.00214226364488946 0.003068623699830154 -0.007434279697716136 0.002763546158783001 0.00370178592745153 
-0.003681835426097959 0.001777137912043509 -0.0007956811627361001 -0.004418108340522702 -0.001341571124667128 0.0009570132406962553 
2.769285139128395e-05 -0.002960645368050802 0.004078444399663056 -0.003989025672923696 -0.003406823400908529 0.001042595185459646 
-0.005267475028587773 -0.002437564941421402 0.002829605982387751 0.006911288551578589 -0.00282292813262254 0.0003668876291930877 
0.007056449826513822 0.004511263198745474 0.004436196743943617 -0.0045588368445069 -0.007294398923151398 -0.00877379891633496 
-0.0002245730465817845 -0.0001136541453049917 0.006622772780131241 -0.006107095742679843 -0.0008230256986212006 -0.00173214836065873 
-0.002240149560470912 0.0004889023606295041 0.00492657384580771 -0.004097871890899183 -0.00286660055081155 0.004490124209300074 
0.001377929387556316 0.0006644564732274579 0.001295831972434781 -0.002276837087379625 -0.0009203457903738392 -0.0007504675197673717 
0.0009635225562337613 -0.002475966375164501 0.002332718543992179 0.002811645267968318 -0.0008728606578693554 -0.004894555500903548 
-0.003290967219626595 0.001509739420925003 -0.0001804748931532326 -0.001997278101138914 -0.0006361224400135615 0.001418065342605732 
-0.00643813958537586 0.001779792742046543 8.63647548952689e-05 -0.0009859445127560118 0.001067042407307342 0.00249260509087884 
-0.003370254818345068 0.002687966997276151 -5.843225192713215e-05 -1.785149679925961e-05 -0.0001955682803991342 0.001945832452552069 
-0.007186490530153239 0.004568554033352135 0.002953059148687571 0.003884151613247904 -0.00237182212040611 0.0005266838728618299 
-0.002864158300525662 -0.0005383248379928937 0.004491578033723293 -0.003563328891865709 -0.001334509271897894 0.0003514769924631032 
-0.005317744982164316 -0.002014507077812415 0.007250311426354437 -0.004394673852023543 -0.002284515361344913 0.001426545439872006 
-0.008893909215035644 -0.003824820193184678 0.00803693334807133 0.01249324501171215 -0.004293768942965581 -0.006931184138981846 
-0.005893284313071838 0.001822847454224591 0.002133414223604923 -0.005647306240474293 0.0006428841464919541 0.003110951074958718 
-0.00246997236164046 0.004676669004860489 -0.001367167398900617 -0.003140022786151972 -0.001053580816818089 0.0009639481749135488 
-0.004848146369706765 0.0005619173581318447 -0.0009656969615555461 -0.001021743230704678 -0.002381381637727433 0.006640857567808089 
-0.001550650826386721 0.001219103595008715 -0.0003006834979701461 -0.002642428506331 -0.001922520806298086 0.001283403114504073 
0.007128277088837147 0.002762845125144133 0.0004495736415519379 -0.001477286279218467 -0.005682376650900189 -0.008199395296587914 
-0.001698554585908714 0.001403573222844158 0.001057740476081847 -0.0008205622631335396 -0.001541731456728538 0.000686810251557945 
-0.002251158436691482 0.003777924064721057 0.00188450758248123 -0.0007615007553645216 -0.001776643906633492 -0.0001198349352317082 
0.000892643301008123 0.00172018142961815 0.002196691827049565 -0.004848723972777454 -0.001198539001115337 -0.002316732510119064 
-0.01338931954215371 0.0008542832164854902 0.001592380938952379 0.00513990807331319 0.001252315390105296 -0.0007690249227928063 
-0.009607450250810771 0.002214357595385835 0.0002377569903715167 -0.002036522952952557 -0.001393114481754632 0.005015838275054623 
-0.004158673547325398 0.002332363016410698 0.00133241095937224 -0.001798140464803323 0.001539768415062296 -0.0009558373195338915 
-0.001866164206748873 0.002763242508177475 0.001704960253068798 -0.001276293897760625 -7.307387178717672e-05 -0.0004560204656806941 
-0.006799529697555937 0.002761428261374022 0.0002902018053409242 -0.0002431836971805118 0.002916710846577507 0.004113985044092304 
-0.002012994998360893 -0.005267851781658068 0.01168365038603811 -0.01023813086758771 -0.002156908923685327 -0.0005510444360545007 
-0.00952933048808674 -0.002595009242270554 0.00774349903097048 -0.005483091347520704 -0.0009507956278896829 0.005640965704540217 
-0.01019586226379696 0.0004193245666372324 0.002141408383699389 0.00982147118875753 0.003585880601891423 -0.006506344700393576 
-0.005205018652470919 0.007381089507286113 -0.0007145868671289081 -0.006283277930853103 -0.007018307158438414 0.00722788141596282 
-0.0006893581316263006 0.004451992275444189 -0.001011593735851961 -0.003508382217631083 -0.001122458472269972 0.0002914461204352227 
-0.001572197985447422 0.001074655586075694 0.000145424334204466 0.0007290409674448099 -0.001000968839673782 0.001178534252196459 
0.002537668617427586 -0.0007225729167660734 -0.000348260234930999 -0.0003898121572970954 3.698105775134506e-05 -0.002883155675170357 
0.007070751696710751 0.0008451997059401738 0.000386918642739252 0.0003359719763937981 -0.002571657804462128 -0.007217718295913089 
-0.004383779081014677 0.0001896115806962213 0.001520644719598083 -0.0003530845981670265 -0.001021159222919857 0.001743474273960082 
-0.0009899938854257804 0.002687640501825147 0.004361634680038351 -0.007623783621983267 -0.003661937591938094 0.0005034026391807476 
-0.003420736345234371 0.002836330347307039 -0.001151828261345256 -0.004126426415350219 -0.001779419180641811 0.001351258816911915 
-0.009659046977449024 -0.002421190299820384 0.003935240523519006 0.0009507475207809455 0.002008691174468756 -0.0062002165316461 
-0.0003640411636776463 0.001412762449650595 0.0002693154231869505 -0.0008718078550505491 0.0007062980730718994 -0.002187091431527703 
-0.003969895420327515 0.0005517192386243197 -0.0006425155519497276 0.001821516794624414 0.003286488335682337 -0.0006751760613221159 
-0.004070745994497553 0.006945687881472829 -0.0004851397531402598 -0.004866310983875225 0.002410578235246403 0.002450665498288289 
-0.009135880923618781 -0.00163151856095163 0.004115745407785708 -0.001328087937623754 0.007932911367428255 0.001130191959764612 
-0.004099373021198364 -0.003216024535595166 0.007238436464251758 -0.00856707523781154 -0.0007281472300797572 0.001268281938084584 
-0.006848686490274491 -0.0004155863536839317 0.006135264010926574 -0.005707088257116944 0.0004237588966458349 0.00569138372015803 
-0.01292379799772288 -0.001830227741601777 0.009990171938007823 0.004938634563537527 0.003059956444894022 -0.00761796604407519 
-0.006252886036800224 0.005437216407159104 0.003647623750567746 -0.004887022795020585 -0.004216449341432957 0.001551238600467494 
-0.005587481071893596 0.00478183130324555 -0.0006025828898637432 -0.002846450789329427 -0.003895857648771435 0.00516074690037783 
-0.004312368827333051 0.001232394048673783 -0.0001109337054581136 0.002040264874317956 -0.002807362823524237 0.004532125178010247 
-0.002315330391794929 -0.0001297941574397926 -0.0003151135337314149 0.0002073550138376745 0.000150390742769342 0.0006874413600244177 
-0.0007404632486383425 0.004802714169632457 0.001568172042008391 -0.0009777140071061427 -0.007319819034216518 0.0003813700172984632 
-0.002008679623548591 0.001627777367583404 3.472815235479688e-05 0.000273557483676313 0.001589270818995432 -0.0001056331629588007 
-0.000904124170809766 0.000499782953067394 -0.0007384006422649109 -9.941770915952256e-05 0.004023430737222045 -0.002599594690276541 
-0.0003799655435518772 -0.001043011584110336 0.0001605633546117182 -0.0004402144565133422 0.002273913734774803 -0.002351346928688955 
0.0004757479007166776 0.001534579453335534 -0.0002342285502406003 -0.001438464333421671 0.003140738702859032 -0.008802213588612693 
3.943481313264898e-05 -0.0009001374598453227 -0.001495053104500531 0.002656563860340939 -0.0002209449292978695 -0.001115931022860877 
-0.0004075366283502873 5.587450102877018e-05 -0.0009836256306710236 0.0002634716347380236 0.002838737061415623 -0.003310028846611612 
0.0004334759024869339 0.00483714081907459 -0.001057116526800579 -0.002583041382204413 -0.004960620788529219 -0.002277544164836736 
-0.004168664125033115 -0.003223148020794006 -0.001467815384707457 0.003956489925327832 0.0004067462513595352 0.002155694432279035 
-0.002347871725796387 0.006423764397565397 0.0002378623465586929 -0.002678355908666133 0.0006437058786839018 9.248099315368291e-05 
-0.004111470964863126 0.0006224341494191297 -1.556839317592247e-05 0.000896605408629786 0.001739936739748836 0.001347929567784211 
-0.01048401503040551 0.005491519321602726 0.003208517409682107 -0.00291823075131673 0.004848696563047885 -0.001293046121594907 
-0.002679702906119875 0.01327722179419615 0.0001459940656365195 -0.01068843666297287 -0.005680066591569951 0.0003102591525440331 
-0.0030749660309944 0.009041520771267979 -0.003204543197468236 -0.001675805759798426 -0.00222542220415332 -0.001028645623948446 
-0.004268216061036893 0.005618501460811541 -0.009258475595837649 0.01202397620483834 -0.002875916210193678 0.001482596943666347 
-0.005998799274842539 0.0009479075894466284 -0.001371016839894873 0.00329768780449863 -0.001528317879783465 0.001741823459718743 
5.112794378342066e-05 0.0003895228123022861 -0.000520616632533694 -0.0007316633008262968 0.00542557572030477 -0.002682359329820773 
-7.595748872472061e-05 0.00447755808253382 -0.0007140714955152333 -0.002378550722732667 0.0009162721911311047 -0.00149240428928676 
0.003695732442264776 0.008513762213530139 -0.002036566410745371 -0.001737621030250041 -0.0007446548921543556 -0.005703674038817041 
0.001681781572933851 0.004828169240662299 0.002371065679528445 -0.006031185857993357 -0.002280005920520218 -0.00343205440225023 
0.001090193665549005 0.003520330506966843 -0.004620517762336644 0.0005167278008999603 0.008726417004834799 -0.008743965450837313 
0.0006328143306165932 -0.0007747910888827875 -0.00570755425388223 0.009782132342762685 0.001398056838959735 -0.00246247823882128 
0.004224356765878615 0.003354850795887627 -0.001689298386213397 0.0004700289107400268 0.004913637223764893 -0.006160954152901644 
0.004288202341894145 0.0003897184432847941 -0.0003816014956763313 -0.001258665222201749 -0.002205839236952153 -0.004407521853061072 
-0.005950185044688914 0.001446020728237782 -0.001855458429392388 -0.003975897668774859 0.005275217020955635 0.004048283182397233 
-0.003114405069177622 0.003525185016519035 0.0006460279598122148 -0.002470203158567948 -0.002082954247306569 0.002518686682691938 
-0.004231029897460001 0.004256395934766675 -0.0006849309564549558 -0.0007611547387050591 0.001934451391441362 0.0005471721385313451 
-0.01158566673222446 0.004455230711615832 -0.0005945244728538558 0.006821406173175825 -0.0001861351797693325 0.004458724782277051 
-0.002124366332508649 0.005223388578655527 0.001674310986051942 -0.00384838067669274 -0.004635605687715789 0.001362184820889886 
-0.00209581051948951 0.004269738921547342 -0.005088594796939461 0.003394262184015159 -0.002346768324846528 0.001437987262274287 
-0.0005083371700701826 0.007551400432778563 -0.004056654570182535 0.002059022153569802 -0.003373150329619233 -0.001221385759241176 
-0.0007681511096625987 0.0004315515238181181 -0.0008562425137779427 0.0007119082687029871 -0.002268086577155087 -0.001599752941295389 
0.00935546452493383 0.001403306707892438 -0.0004509045764188833 -0.005823772425417477 -0.003823466937300942 -0.002309363692258958 
0.006614106468226457 -0.001619827561450291 -0.002759764928703487 0.003662412606901397 -0.002682588339867145 -0.004246630484449012 
0.001880087488618388 0.004639287721658072 0.0003301873887382348 0.0008457351115010845 -0.003403913415897936 -0.003473175235150503 
-0.003345571952185856 0.00283650290333535 0.00394476528507929 -0.005132443022695734 -0.002077857201691797 -0.004611518260487273 
-0.005351144962194365 0.007301077977466313 -0.004412726604183333 -0.002739893742047961 0.007872879928943958 -0.007317033965059075 
-0.00339203707690338 0.002757674617116083 -0.004199283887876667 0.003846928936320537 0.006056360916460236 -0.001302833605647505 
-0.004338292880337341 0.004641727972323901 -0.001973206144529048 0.002394008426333689 0.0008506321348897574 -0.0003431733544379461 
-0.003477900322831691 0.001179996164624995 0.0004449070140197244 -0.001118713892746798 -0.001031646785897345 0.001298224888311004 
-0.002795066179005691 0.003400701768825785 -0.0008782033300323241 -0.002472368089843987 0.005829399050881299 -0.004218460844265769 
0.0001335072405356088 -0.002109284996616534 -0.003483351551856531 0.007804195043572376 -0.002802741271195383 -0.001046087888042713 
-0.002629106799602806 0.003752625976175488 -0.003625773790056731 0.00123413354129739 -0.000168334384148419 0.002518935966997229 
-0.004363673495978403 0.01441975842906297 -0.004924357198201861 -0.003990733873807653 -0.0008535289381585932 0.0008136496144567242 
0.0005465054974934368 0.006589776073787615 -0.006308586991024375 0.002104026991965525 -0.00206540585853365 0.001245521636719269 
0.001326041299678627 -0.001916455133873199 -0.005007910711874291 0.007070648355434675 -0.001987118642527424 0.0007867541101043873 
0.002657571006659983 0.0005233114018002939 -0.003542823704413959 0.007173092152005196 -0.003164971524576799 -0.001393575103185661 
-0.006808160824707443 -0.00445918867648002 -0.001707090039976424 0.003676359532519863 -0.002019710323311278 0.004072774244951303 
-0.009252316984320557 0.002088442055919055 0.0006462694207345994 0.001452569699355664 -0.003633354967451374 0.005047609019935165 
0.000807744847821893 -0.004427585119650425 -0.0003711581581741253 0.006003323883339363 0.001484048702938152 -0.002445684533628416 
0.0007183632118809894 -0.0009664836214104547 0.005803455977580573 -0.002015164865373367 -8.258121487992776e-05 -0.001634508297484144 
-0.004264967719506962 0.00669321327045965 0.001805469396699496 -0.008878169914075652 -0.003755518198125423 -0.004202130593265232 
-0.001431508835690471 0.01336460777893005 -0.003393187202791858 -0.006006005796646081 0.003591489219349383 -0.003457411278869303 
0.001268508224578765 0.0005818006109631301 -0.001416086685648778 -0.002204278575169484 0.008375717842323166 -0.003230254940989585 
-0.004227658168940989 0.001068081788555654 0.002138602569677612 -0.001969929736092626 0.003472598376335798 0.0003655588254197452 
0.0002359107719745774 0.00253871284502789 -0.0007928456268793308 -0.00166658258764407 0.001209830321238357 -0.001506498925502815 
-0.003512965642183827 -0.002386216844122432 -0.006105221734302371 0.0001662205719983102 0.009098812312503538 -0.001990167650473528 
-0.002819854554827284 -0.002030414965207092 -0.005262355044799251 0.01105452117168672 -0.003371779826037357 0.0005764561649175928 
-0.008674704492958854 0.008133745657360586 -0.004026085871729126 0.00188921018869982 -0.001127806521455114 0.002813033870512623 
-0.009885415624154256 0.01563961999200704 -0.003240315021276288 -0.006741008880751232 -0.002523714724871301 0.002858291653807932 
-0.00101147234359635 0.00206671163099572 0.0001244779108703672 -0.00303308759864635 -0.002823833283961988 -0.001321917100128707 
0.005542319404036656 0.004671815199431968 -0.001494696862907443 -0.004913135585660623 -0.003734642054245023 -0.003856040225488697 
-0.009393499878944275 -0.0003996959477077545 0.001118997058474621 0.002124430850389961 0.0006745668653962327 0.004838994557513715 
-0.008955288953808434 -0.001666117578991835 0.002977680738678863 -0.0003963377205467675 -0.002860518356619011 0.003063390563384862 
-0.003746182998422066 -0.001465292461730542 0.003375452737611283 -0.00652881573338566 0.0006058669147144541 0.00374577814888649 
0.0004042451846279571 2.7986230249224e-05 0.001268217785394762 -0.003563271144575652 0.002315585526510744 -0.001663305084616983 
-0.0003623941980508374 0.0002388251685798133 0.005390228633670673 -0.006189327445180474 0.001820476971061827 -0.0004236905798332729 
-0.006458810163616518 0.01110685164780561 0.000788364196713507 -0.01133504069512698 -0.004268991888272556 -0.005566189670973266 
0.0007778249208078604 0.01081714922237403 -0.004130078563843188 -0.004590868151809842 0.00572275626123926 -0.003744317892965018 
0.002040534433849335 0.001023141510298079 -0.001130632150724431 -0.001103063882007183 0.002590995881215862 -0.00111957630046367 
-0.0002554391263233379 -0.0008264278332930027 -0.0001246543112262027 0.0008422823187175708 0.001539377588376836 -0.000868478855039288 
-0.0001967582265782537 -0.000730596124890735 -0.0009273368187003785 -0.001120311514700646 0.002038513732772594 -0.00177127612740672 
0.005841461048451773 -0.002030562611612781 -0.006248621885820797 0.003987881833745635 -0.002396646794238235 -0.002771347672828835 
-0.001812506375998609 -0.003868509052286315 0.001158512000940298 0.006729390168831707 -0.001806762051704029 -0.0005083522156437047 
-0.005892117485818714 -0.0005299911354379676 0.001183857751955402 0.003154415236596715 -0.007187912559243897 0.009181418857213545 
-0.002421884593638611 0.01620628632931496 -0.003086216002576211 -0.00422418619694661 -0.01098596941734137 0.003531080407123713 
0.01199933513322888 0.002100405122339279 -0.0005104350968959237 -0.01123133873520696 -0.005251491707737244 -0.005913940146140388 
0.005343458795816766 0.0001621794632471981 0.0004380365122914734 -0.0008263924777301303 -0.003650940925144987 -0.003554516899397519 
-0.008679486404200083 0.0005837650539954887 0.0004580578346342556 0.003025913057133317 0.004421449213915214 4.691001739091152e-05 
-0.002213421973984988 -0.004239410557195589 0.002549515538551005 0.001289070002564035 -0.003456831743305909 0.002648215383412954 
-0.003619196621534025 0.004914380769514878 -0.003557139560562482 9.273428534131713e-05 0.00436553280196807 -0.001892163461196585 
0.004224813358962604 -0.0003207065797343334 -0.001179224053339623 -0.001369560536827443 -0.001747348973450087 0.0008252494608219631 
-1.923953318956152e-05 0.002425854497790116 -0.001101537782629081 -0.001181894814106769 0.0008422799111806184 0.001746866486932627 
-0.003430089817974967 0.01139930124345327 -0.003373550939039334 -0.01143547287061308 -0.005359038068241787 -0.006547287074437468 
0.01304026755740371 0.01204498676162991 -0.006974611495286728 -0.001478488203912127 0.002831900950438128 -0.008973330992545728 
0.004282031968893103 0.001754967034949958 -0.002112742611813899 0.0001986222142327177 -0.001134654823748256 -0.00150779557380132 
0.004973350634800537 0.001772615980776659 -0.003417472467656979 -0.0003260602147432665 0.0001229090821467815 0.001350057123303347 
0.00388263261016384 -0.0005761496942604613 -0.003082084531886348 -0.002972111611389898 -0.002564662790807346 -1.456094956123161e-05 
-0.007083771784338542 0.002128899229123694 0.0005091914464961464 0.001556749322489498 -0.002546593504138896 0.002343000228095762 
-0.007657196429099931 -0.0002237238721988742 -0.001255147301960735 0.005366680488476203 -0.0009447809410429899 0.001094396967195201 
-0.004038931400972561 0.009274151373282417 0.002566872337331297 -0.004720082897236265 -0.002025442631240868 -0.003181274311822713 
0.002832461910825443 0.00621090420776925 0.00614991114142872 -0.00384192242200512 -0.003841605440854039 -0.008427641982547002 
0.004516321791842426 -0.001481952328160055 -0.001362563465622004 -0.004022936822468958 -0.00486385981278371 0.002258539525908388 
-0.00316810360699324 0.004311419909213484 -0.0003221664342534647 7.148593447978818e-05 -0.001058596684796052 -0.002370410829707854 
-0.006168948083768055 0.0007810286210206566 0.0006294290941189501 0.004196299096235446 0.001651344384345554 -0.001876184897011949 
-0.005231281906893088 0.003635243168424748 -0.0009152476416017938 -0.001075327761528302 -0.005938837756427203 0.003828119899448509 
-0.002531599703816429 -0.0005207403388541228 -0.005447869099158761 0.0001159976295669341 0.005604443666660302 0.001739733937866285 
0.0008953964998821211 -0.001477432927700446 -0.002424511200142085 -0.000783296143965293 -0.0006639592145351464 0.004932414757524113 
0.006922797601644696 -0.00275033262829853 -0.001113577856850214 -0.003026594986390833 0.0005535489529343296 0.0009159542365266326 
-0.001743361002283466 0.007013790051975693 -0.005756976125379591 -0.007636387063344101 -0.001395829270857984 -0.005043798172839148 
0.00673072814399974 0.0006519872125233027 -0.001220217228189366 0.004107447750645586 0.0001796904508295616 -0.007806185687362383 
-0.001499226708795037 -0.0009414716931549494 0.0008353241176100131 0.0002205954155345287 -0.001309156263388414 0.0004232958838781437 
0.002049910322677006 0.003302721670288432 0.001300726266606166 0.0002813816160137062 -0.0008888318653102427 -0.001965567722216793 
-0.0004132140178308838 0.0004292868047122773 -0.002737290922124157 8.018680394672325e-05 -0.002499666066070164 -0.001446456457213078 
-0.008543431019713591 0.01052342481003848 -0.001092099092257989 0.005566765241819035 -0.003288546278085681 -0.005725918775601628 
-0.004898107059277275 -0.002430749244812178 -0.0001093244384668203 0.003998298872909195 -0.0008089197473016108 0.004052468476870732 
0.0006978165847136778 0.0004235010619388666 0.003066115013261905 -0.00107822777037588 -0.0007588242635685567 -0.00107383240188807 
0.00863755588342607 0.003400677162859682 0.003764695337737151 -0.003907373519810802 -0.006185196670043957 -0.00995574961200177 
-0.005822598256045925 -0.0008469778972611107 -0.001189418627115134 0.003750079322028264 0.0005215814112808758 0.001305533957893603 
-0.008572551586910778 0.0006298793600633163 0.001377504908526314 0.003518026889229342 -0.0009693673556449856 0.004418126475443687 
-0.004821883620571907 -0.001952960966758184 0.003347054297268082 0.001401319057237482 0.004249689854770582 -0.001467801941573187 
-0.003700622277224704 -0.001506842313883089 0.003838742391539068 -0.001147616305601516 0.001393238271184055 -0.00121169100248088 
-0.0004529182751422166 0.008073854718118752 0.0007218278564375814 -0.003017012959921849 0.0009920430634815488 -0.008022728604179097 
-0.002309638490469691 -0.003535832604860669 0.001293902688809974 0.001232838892682816 -0.0007234936342989034 0.002126895348171642 
-0.001235746430034989 0.002132441042898904 0.003173287429672437 -0.001938377852811967 0.0001086756523825841 -0.001519219078575721 
-0.004114712858960793 0.001580202408064535 -0.00387556080217895 -0.003211211801414277 -0.000771811861752458 -0.005591650175226406 
0.005408860182392157 0.006723251097733897 0.002638726303188394 -0.005454744983458419 -0.0003617207393546187 -0.005692428280203977 
-0.0003881619877199351 -0.0003964371637470841 -0.001510414736760252 0.002533197005203537 -0.001920420519182885 -0.001060470454906396 
-0.006236069270406082 -0.0004348390177847188 0.006768230240993219 -0.002744837564042132 -0.007861095748544853 0.004332097034187877 
0.000524529406667052 -0.002839579154819843 -0.0005730011314928743 0.001070028938919092 -0.003057402025914203 -0.0008523166837397199 
-0.01001430759080153 0.005841761140723284 0.001982187902247053 -0.004022691404514542 -0.00172976354447845 0.002927918967521635 
-0.003506224254779275 -0.001390775669909286 0.0001193770942071567 -0.001285319749122989 -0.001130173558843296 0.005695392814940826 
-0.0007871818970325346 0.004863157296461117 0.001212942748956876 -0.005882942245613402 -0.001670673464519948 0.000588602384903288 
0.002364930209474592 0.007022139646954761 0.003596745504996806 -0.008283123706436992 -0.005441845768417803 -0.006250311414705226 
-0.008680442897291335 -0.004813320887172966 0.001883700856011084 -0.002377682764428611 0.0001786099777681276 0.00988761254905632 
-0.007644565308467942 -0.003066635212824353 0.001112216748437801 0.00556540097804485 0.001852936916321625 0.003713473649753365 
0.0003373845261470833 0.001644047199989254 0.007822652002710253 -0.005948498397314255 -0.0005393014555233016 -0.000624915980735041 
0.001213763641616952 -0.003900084151062925 0.004796734225881429 -0.0040945991695954 -0.001842701243554848 0.001259046304760506 
0.003604520975964469 0.002243906397471454 0.002710263486402421 -0.005131062696725713 0.003478708446887898 -0.004146191087569158 
-0.002932934237481481 -0.003085159843877426 0.002482437300572835 0.003533095328351253 -0.0005066945280530114 0.0009834613705030438 
-0.001481406743486452 0.0008520666790000238 0.001629077752498392 0.001793713444854219 -0.0005733936695240926 -0.0009797309934346872 
-0.0029630080637269 0.003449552252843322 -0.003174427073617569 -0.002925795826322302 -0.005311467285212502 -0.001908901943781238 
0.001809461958199432 0.002596994941151964 0.0002285570488891665 0.00370898447834589 0.001730857553318208 -0.00425044861034831 
-0.003947385572834824 0.0007058599949523701 -0.003027379933543088 0.01198656456273201 -0.004084289351760935 -0.0002406560858872484 
-0.004399197064324041 -0.000683650860730381 0.005467391389238211 -0.002496809349146382 -0.00770674869813943 0.004563368972164797 
-0.01682461323709189 -0.0005077261092613581 0.001503969633984551 -0.003777344550805611 -0.003618341773896229 0.01229379816834298 
-0.005616786532390783 -0.0006553572093127322 0.00371022445810325 -0.0006021227768334683 -0.002076203305705469 0.001374493953074567 
-0.003507467177720043 0.0006022779100125411 0.0009198027979171755 -0.001209342854141375 -0.001189134590311382 0.001476538786368502 
-0.00540066940472433 0.006479813284794232 0.001072447124817516 -0.002996199533396439 -0.00117348852470006 -0.002225864133460817 
-0.009731269637752124 -0.006207215611213659 0.002121097848777954 0.007413533219091852 0.002126981410544614 0.003031042945138683 
-0.009590700603593219 -0.001976759247996004 -0.0005483591658015708 -0.0006162563854303717 0.001607704336984248 0.006316803706809975 
-0.002358839344896216 -0.003849488779610138 0.0003874571527097995 -0.003910954589212751 -0.001881116029150557 0.004388224632633938 
0.005823571078809159 -0.004815007513469913 0.007112929861640574 -0.006270073454778391 -0.005451907104220119 0.0001596548841481287 
-0.002859629536410386 -0.004548440938805227 0.003599056430307029 -0.005626577781766365 -0.0002776053082308331 0.002637403018656462 
-0.002468556571678474 -0.0006237148978214537 0.0003695850356086552 -0.002720149202283701 0.002289284931777359 -0.002607189863787205 
0.002233486888536124 -0.002564514842237488 0.001913662738301343 -0.001706142156768144 -0.005825944952755605 0.0009761011887869052 
-0.0009500395593281698 -0.002121788894092889 0.001971843586892137 0.002426758593041599 -0.002569013651726438 -0.0004409375902975638 
-0.00922952863554255 -0.002339927726694226 -0.002876013709492039 0.002812495731171117 -0.0004452507704318113 0.003275154835856961 
-0.006016342299778827 -0.009026839882681045 0.005170069857892587 0.007330758239086937 0.001459128693839888 0.0003994671361727567 
-0.003139253829672183 -0.003149327462117994 0.002835873977283132 0.006320355040242111 -0.003442612867407846 0.002312031756329094 
-0.006336947327549851 -0.002277432890458923 0.007397471946660316 -0.004264743805346599 -0.006638754975483448 0.006542480008004547 
-0.00652122190949924 -0.0006479810635103222 0.0001428582827661351 0.0002052600960846127 -0.001075842082518621 0.002631450307889156 
-0.008366128860784267 0.007429879051410485 -0.001127697095322901 -0.003862403949192224 -0.002375441094557011 0.003195449667051762 
-0.00246054365434863 -0.0006634335430528733 -5.979413640083889e-05 -9.433039825744941e-05 -0.0007824747366103348 0.002541140053760173 
-0.002005697641389555 0.0007160767977237905 -0.001201176773529857 0.001869215345369027 0.0009360910333893485 0.0002501593464427005 
-0.00949177597172824 -0.005460384737716812 -0.001449509851456325 0.005298158124364087 0.002359239981201478 0.003072924887429387 
-0.001262673970697634 -0.006161720345197149 -0.001271555516810573 0.00261177697496502 -1.810032818929758e-05 0.002430098945370417 
0.001368881679532444 -0.005570389274418455 0.00487740267975776 -0.0008692073091713895 -0.00143209109886992 -0.0001206888548134796 
0.001243496746447087 -0.001318089038925377 0.004531721369851325 -0.006894915225285461 -2.393930295768529e-06 0.0008965044561735765 
-0.00117990724268657 -0.003330894060918442 -2.682168954371023e-05 -0.00185274433931386 -0.002925614299935895 0.008233260156324295 
-0.01237052569019952 0.0003736500762011025 0.0008322040146046473 -0.006596865849263096 -0.006369604207768894 0.01359899912396879 
-0.001436735371721745 -0.004581768118795665 -0.0005471909147070135 0.0001725512538917051 -0.005262231996338152 0.004609514322769399 
0.0004846911187371223 -0.004185218855072117 4.717912532546922e-05 0.004299512308634019 -0.003228679280611098 0.0009553261133748803 
-0.00665526645418608 0.001721235652154406 -0.003755218904454583 0.003059374189596335 -0.001716213366529839 0.003610711803010784 
-0.005248703959598301 -0.008570723868010796 -0.001625759426913221 0.009213463762001075 0.003756375100433662 0.002629114518281964 
-0.002699567736363651 -0.003748670995045546 0.001695686468665036 -0.0001609832780766117 -0.0005824760710914487 0.003113672822299928 
-0.007765754443309762 -0.005198108921928775 0.001432985444556574 -0.002586624775609995 0.007391607117550515 -0.0002432975801169111 
-0.003065141026839258 -0.00538109664546061 0.003293917045072172 -0.005312983433604326 0.002848968841370644 -0.0001064565975851568 
-0.003864327276394876 -0.00751322298923606 0.005257394147970177 0.01164430495645037 -0.001113790270800223 -0.006440681272263953 
0.001321038684423202 -0.001161410487620847 0.001565139028809232 -0.004984488805624049 8.224862796973696e-05 -0.00116924812285849 
-0.00305358232127875 -0.004892913124801385 -0.0003956953476218296 -0.001759719624957693 0.003132184042128448 0.00525835750324676 
-0.002416785110940451 -0.01157314553578155 -0.007858944155336455 0.01247827175748452 0.006153988958276377 0.0004927918644195873 
-0.004707782046008184 -0.003630513578952609 0.002939546151124581 -0.0008752449431306053 -0.002291740575139116 0.003847528267936708 
-0.001937637803685965 0.001781981896861245 0.0008053796969162997 0.0006823570032606309 -7.172247954639473e-05 0.0003023726126184476 
-0.001458931504762428 0.001545142122039402 0.001456915785749202 -0.00409741188937083 0.0007106054143270846 -0.0003280037626050193 
-0.004693532076268135 0.007088258170967386 -0.000301627949814563 -0.00447067681245212 0.0004527421062207256 -0.001015481749967057 
-0.006720337805817165 0.006151897201386479 -0.0006886980166670425 -0.01109667013527227 0.0005627522480512794 0.001930704026178675 
-0.001418315318617672 0.00022684272586102 -0.001093035145321749 0.002160896737925254 -0.001569103792848949 0.001929425472607124 
-0.001980866164713376 -0.000746391148241656 -0.0005282979575419447 0.00508617773056346 -0.001302450123274759 0.0005676301637987055 
-0.001979367218551622 0.00045956030052462 -0.000358941708152028 0.0005539548300109206 -0.001278430208842732 -0.0001352893213643999 
-0.004720992686468914 -0.004294645623280709 -0.0006599808323374733 0.004112218677379958 0.003956222927854162 -0.0004114156481031028 
-0.001669428420527348 -0.001227341437661138 0.001625942666155387 -0.002318164020446074 0.001820347354673083 -0.001229695925908411 
-0.0007388622883213661 -0.0006848175040962348 0.002406079892519743 -0.002246906673164203 -0.0005745378915664002 -0.0006395425800696267 
-0.001290362603510399 -0.0006022003504103642 0.001400085806358012 -0.00356707302597685 -0.0005056555047157926 0.0007275391736202777 
0.0004806590227820035 -0.006191644696552635 -0.003159367385192252 0.0006574962848765388 0.007222909339720879 -0.003946850517040258 
0.002159262499106782 -0.001173330494301671 0.001188698918470401 -0.003552636598800979 0.001080219528862445 -0.000255271949703762 
0.003541685232435937 -0.002371290413931851 0.001120608686501536 -0.002001605575029199 0.001062495712965549 -0.001197126812530276 
-0.008607468540251899 -0.006915022843404953 0.003201445119042481 -0.002369603767870893 0.003938690440776995 0.003808398679849068 
-0.002636766010908897 -0.008171100609797137 -0.0001755482421464036 -0.01306464427387228 0.009782678666009988 0.008958662604819362 
-0.004029317700605429 0.00417416153594119 0.0006557407684409472 -0.006194820704935467 -0.002271849906682083 0.00314036123192084 
-0.002185550571188317 0.005668617773553176 0.002592926356151307 -0.009343507257280051 -0.002850940695834606 -0.001239053438572615 
-0.001384608898990926 0.001883288125534707 0.002814022134636795 -0.005672823817889709 -0.002371237714681482 -0.0008726967800204874 
-0.0006437462797798808 -0.006826171829780169 0.00383400161955261 -0.001933091604769789 0.001839714936177943 0.001287548618302682 
-0.002508704925832644 0.005753195922213366 0.003265534879385293 -0.006405999323149994 -0.00194005038719996 0.001073194721920264 
-0.002331930381015053 -0.001410355775834444 0.006192812936919663 -0.003610513988244594 -0.003072106840140517 0.002151247211644233 
-0.003163866508814462 -0.003100869755262532 0.0004611921922996578 -0.0002067875182229765 -0.002868016380341976 0.004273041269272508 
-0.00326248863335191 -0.003414206613189941 0.006084008222226546 -9.324315294253288e-05 0.00208922614723691 -0.002637406424325256 
-0.002816888176584935 0.0005737696977832381 0.003479282392485673 -0.001825027608817373 -0.001769918571330529 0.00147925578184308 
-0.001784213673195716 0.0005427946957769888 0.006871221365086921 -0.004992326306431595 -0.002471475063014583 0.0009180140541934401 
-0.006658105950677172 0.0007438607846770736 0.004322896203032632 -0.006965858835175107 0.0007693800644232234 0.00224299474579867 
-0.005472727391702095 2.694302588848807e-05 0.00191638693159725 -0.0008203025616319326 0.004235889476374513 0.002104555682855089 
-0.002605967823936223 -0.000680917586283881 0.00367788609703392 -0.002339514442348611 -0.001427018238780085 0.0002565379801738708 
-0.004075300637335945 -0.002734767607858268 0.01153964187533492 -0.007762457564385555 -0.003217225664421873 -0.0009083595850082896 
0.003224004918972662 -0.00851020251412082 0.006479465455790168 0.001150664538043584 0.0009633549207202687 -0.002330286838304829 
-0.0005144656595506992 -0.003134108116044927 -0.005410333661445331 -0.01010755016215203 0.0133304798797282 0.001082506872850077 
-0.004019294398879126 0.006052192598847802 -0.001226626945360265 -0.006524306832279799 5.374642048194106e-05 0.0007309413487557431 
-0.0062076664544316 0.001052903397345117 0.001788062087337131 -0.005570076404605086 -0.004805834817859524 0.006689622484917388 
-0.005814653601920685 -0.004969831569227198 0.005360356457630864 -0.002484953095313808 -0.00163084587942705 0.00141774707246824 
0.0001625820967892484 -0.01108692107988968 0.005119614563942419 0.003284556379691812 -0.006883758299806332 -0.00465433669276333 
-0.005083462218270981 -0.002695615231101655 0.01410118747203583 -0.01613562133738257 -0.005296453941044183 0.002047611284091607 
-0.00294406796850624 -0.0001466110987070986 0.009341634140351125 -0.005324339050346943 -0.006101431146503184 0.006115770293384935 
-0.001625705579361632 0.002667751981142063 0.003463470897662059 -0.004276686629782644 -0.006235297882577328 0.003881265204514301 
-0.003218015316765787 0.003977699163530374 0.003555979675592573 0.002001964977432553 0.0001355019704479418 -0.003118438338671473 
0.002948547954441473 0.005593890264217027 0.001444639746886983 -0.005782802218066908 -0.006709711362600223 -0.001150543292488422 
-0.005821978458939303 0.005465022610558198 0.005024940284772675 -0.003898992837970962 -0.003670043403902208 -0.002187397425786915 
-0.00497115657699748 0.002885862094920777 0.005732276834882467 -0.005920214766242233 -0.003248038426354625 0.001703953971181914 
-0.008743358694562301 0.005557871321261701 0.01008095922339436 0.001503151830651637 6.833199859339994e-05 -0.00324805670290072 
-0.005871979880840194 -0.001382780522597334 0.005756058497613795 -0.002293238105769369 -0.00266761157850629 0.001019202872337285 
-0.009742810209102152 -0.003125340104614138 0.01199911724725073 -0.00914732591068022 -0.002780099510565021 -9.834442912774473e-06 
0.0003620381395653207 -0.004240179096478315 -0.001585280882627216 0.006769619393206845 -0.002337460680295879 0.003386773725346692 
-0.005097505562756035 0.008638244451942135 -0.004390853794231647 -0.007915981645572936 0.005702792294130496 -0.003557499548781618 
-0.004982948530259095 0.006677076543921599 -0.0006468604228653584 -0.006536418822922238 -0.004124633474304714 0.005852250262896709 
-0.008834755540942761 -0.003567973382604478 0.004814372286200066 0.0002366091364604212 -0.005048298262033742 0.009678916485394741 
-0.003852604371436854 0.001602509787782647 -5.00422983499109e-05 -0.00235861934371416 -0.004826798979342902 0.003259217945254929 
-0.00237588351365266 -0.005672727778463088 0.003087102201105398 -0.0043743677780667 -0.01029944901908946 0.002092957965945751 
-0.006104905982967543 -0.004704310868638023 0.01275765630522333 -0.008455633164483058 -0.00397420605768511 0.0008121702161044045 
-0.004839868675089998 0.001371340351293759 0.01594399842958216 -0.01118710278632398 -0.008054585445775099 0.004093499765520067 
0.001359844612784746 -0.002540445853577282 0.001317719566104833 -0.002552885906030558 -0.003024675935767342 0.00260534333083286 
-0.003766124777089385 0.003084831930662413 0.002004480680341784 -0.002148798097059625 0.0008794246538308266 -0.0009037245364113333 
0.001161374003732066 0.003823566979348296 0.001176986697412391 -0.004212243062983697 -0.00150092148169449 -0.001241718840960673 
-0.006489728564605511 0.003814493413483096 0.00548967113743982 -0.004949618352113493 -0.00165016938998821 -0.001964377070474128 
-0.007736210179091423 0.0007387418636216504 0.002234145850094211 -0.0008386126793808227 -0.0001592520752524735 0.003093367430454955 
-0.01503773627913028 0.002979761418776331 0.001708603884139229 0.002774803955408741 0.009194498973445818 0.0002243128681571993 
-0.005117699213572636 -0.006731023495710731 0.01525018205519481 -0.01113011868550826 -0.00437997215442919 -0.000306267970652051 
-0.007846874875375266 -0.004444962418844841 0.01194460791127826 -0.01006193692599066 -0.001547913754318798 0.001144780216782913 
-0.002184264716200026 -0.003780119041253515 -0.005734524689460834 0.007753222974732502 -0.00154374536460017 0.004699170510860857 
-0.002174828541441984 0.00532930081060978 -0.001353777279491263 -0.004605531551989073 -0.002072986159214776 -0.0001066088090313652 
-0.003178740918378332 0.004481223208055812 -0.001999844331388077 -0.004979622773311366 -0.002648779857563446 0.00359146521652082 
-0.008701449872790541 -0.003961751318494655 0.002893321324064735 0.0005969968278389458 -0.004951023453062723 0.01159133651282644 
-0.00341859199974953 -0.003955389598103782 -0.0001399435845658478 -0.0003072195687884185 -0.004273250936161731 0.004654638605514957 
-0.005964966396437462 -0.005420617586028 0.005996887850346715 0.00449037494121669 -0.00826451449343526 0.002254588969632929 
-0.00445211061402391 0.001212414816871577 0.006914737068239913 -0.003644925373866892 -0.005554314851519357 0.003440077268178666 
0.004892296948818563 0.002614500642616752 0.007041138280551784 -0.005052408199862852 -0.006426497837740074 -0.000562989434999549 
-0.001077625671893647 -0.000525788582016895 -0.0006427479628248961 0.0007106698373228736 -0.000596032084963853 0.001754537649400653 
-0.01422135595506467 0.007886565187794903 -0.003823379416012595 0.005409624091464115 0.002860728633396471 -0.002397941743129018 
-0.002090702016317276 0.004074096925577514 -0.002719302895419446 -0.001647951012175285 0.004360947766345454 -0.002751505024933847 
-0.004123472382930788 -0.0005047310606464791 0.0005247760930294233 0.003756830955188391 0.006554744855591442 -0.003553604017611962 
-0.001626204646136796 0.001452545674908389 0.0003758945351921321 -0.002899260931035911 -0.003916121885868148 0.006467996296022237 
-0.01141075494803864 -0.003466711555808171 0.0005184797950037159 0.005435631526226345 0.0002611315840849786 0.003987746457658604 
-0.005838899272195926 -0.01136861322230385 0.01779867411899194 -0.01313066649885589 -0.0005974781722353793 -0.001114410284394686 
-0.009862269462899011 -0.004230056527539333 0.01224942042822661 -0.005348547251823822 -0.0002562119501739477 0.001973135690846658 
-0.00550956140679419 0.001395759083404073 0.007461890235758468 -0.001362433505145163 0.0005882206727125725 -0.001680367702278009 
-0.00216457428882794 0.004055321228924832 -0.00348944862707392 -0.0006237706465259106 -0.002888225833023048 0.0002822161626372448 
-0.0002976055430435532 0.00244630998535926 -0.004620028691626922 0.003457564083062311 -0.003546943427520101 -0.0005390859677000071 
-0.003230682200861666 0.00194473021200109 -0.003109840356023681 0.004039555596393045 -0.008736465316861702 0.007715506342873535 
-0.004013162891284618 -0.0005275226740572711 -0.000971470135555648 0.001258450119942966 -0.001575785336685262 0.003561128043304509 
-0.0009344253088925764 -0.005856458402994014 0.002862560097498293 0.00449317916866732 -0.003265200733898535 0.004194437226613775 
-0.009392711244453867 0.000280048743946588 0.006873599977445342 -0.002480933350424063 -0.002110899927725674 0.002994268890683186 
-0.0006815811111955695 0.006508413411818812 0.004438776533907195 -0.005882203603795637 -0.005109478477660703 -0.0003772612694199431 
0.002028881184582137 0.002409743241890945 -0.003422088263936003 -0.0009936433712902041 -0.001016401425716691 -0.0002114036771801267 
0.0002227096653485441 0.003937792692707141 -0.00294685529585902 -0.00206581365881568 0.005300038549731992 -0.009461200778695692 
0.0001567852321076374 0.005874101041951979 -0.008207203904218942 0.005159862808814366 -0.005998025171997059 -0.00303628397432967 
-0.002443320140756229 -0.002068088682066023 -0.007010245320527006 0.009623434586523526 0.004567720293159125 -0.00340574700135388 
-0.005675918139845736 -0.001719464839224997 -0.002033449695057604 0.005597298750515435 -0.006862208484378752 0.003194552716817455 
-0.004840308595079341 -0.008351106317968463 0.007683305718451179 -0.005742568623550618 0.001569610780230855 -0.006016999864982391 
-0.006542322395843327 -0.0009247508381323768 0.009481120404479047 -0.008689152622177185 0.001787825750805172 0.001755313853726887 
-0.006787524974166645 -0.0005529767751098083 0.005852442240782951 -0.00554218572932529 0.00303994335460596 0.003179454628633005 
-0.005676863577830942 0.008755552471706323 -0.002544756069373715 -0.001827111479552624 -0.001063460679447315 -0.002341883095169309 
0.00216561707303748 0.003658173276996848 -0.005169786564227454 -0.001384495411073948 -0.007808691732376945 -0.001216261769508296 
-0.002147972035461382 -0.0006001829291160765 -0.008591772375818997 0.01113286051575063 -0.00461773137629921 0.003669070669349554 
-0.001119499322946554 0.002984019968493077 -0.0133637729142275 0.01695203711573233 -0.00539687496229075 0.003442755627718462 
-0.006980397066164992 -0.003639747688773212 -0.004422963364435794 0.008624216056787525 0.0008218793771853613 0.001199158243262367 
0.003982347029327604 0.001403652266792228 -0.0004751380498953277 -0.002574145119139656 0.004659873554551166 -0.004324549993906037 
0.002399792673977543 0.001134431865047042 -0.0006303164643082321 0.006034409214042998 -0.002682030451203464 -0.003796870796467335 
5.489568404176218e-05 0.007676036298722664 0.002052803515380776 -0.001291244850735716 -0.007251777970280452 -0.002379114381496066 
0.000192251003157791 0.004300612618649557 -0.002097621945380309 -0.001294041169167005 0.001670258094412442 -0.004315486222346788 
-0.004730273107598202 0.007234535244764613 -0.007905188163440977 -0.005100198183286028 0.001653815421343378 0.0058485202333805 
0.002158952562445998 0.002660527330060727 -0.005005621774338297 0.00127068673667233 -0.003080523747929054 -0.001054692844906435 
-0.0008972588711565643 0.002294676022707676 -0.003097528944028725 0.001097371912204677 0.004572174079099633 0.0001936970680125864 
0.0081924226649434 2.734139845569988e-05 -0.000291802286715044 -0.00158057745177258 -0.001820466074145811 -0.006921565293869365 
-0.01031514224445425 -0.002886878582247236 0.001627377321390198 -0.001115549343111363 0.002631669503567895 0.003671482790198156 
-0.008516017349178865 0.005729441601293359 0.003827360230913367 -0.002114298089771083 -0.0008843384291949877 0.0008675813764278527 
-0.009176137607395742 0.0107538648005414 -0.0007847341867287329 -0.004171702065704786 -0.001273431387469316 0.004709355711273285 
0.002448072095401501 0.008085185091130322 -0.001675520709270842 -0.003654652783096958 -0.008566246417262464 -0.005540531672620182 
0.005552141268384968 0.008102754489607527 -0.005573015037751273 -0.004314720550872605 -0.002054598758031708 -0.006218789037554229 
0.001295281756708998 0.006093599281539317 -0.009851252346215979 0.008928221628556759 -0.003722235001876299 -0.004099404538959028 
-0.002614407623446759 -0.001623481125281067 -0.002674505699915581 0.005723907751470152 -0.004207821538692555 0.001959648761673243 
-0.004560915506970323 0.0005021573964081741 -0.001232832104871343 0.0002437956567209986 -0.0008073815004776336 -0.0008373570917111046 
0.003528032614003157 0.005744359589521193 -0.0003825154813580985 -0.004918542673494616 -0.001900549269862129 -0.004495956645768726 
-0.0002324780026620353 0.003919246038875708 -0.005709990508483438 0.008573949568932288 0.003107300293003079 -0.006257571676588511 
0.0005938220185681656 0.01529260048131422 -0.001825263617565514 -0.007313793930590273 -0.00210268788444268 -0.004505846995892926 
0.01265383937534982 -0.002054712253666755 -0.004307229885790052 -0.0007210806208337216 -0.00434396979874421 -0.00645464002389875 
-0.009121629692539004 0.007258126781728869 -0.007937273407391369 0.00224419174233614 -4.429811361064714e-05 0.0001030514450158987 
7.326813277953806e-05 0.0008327355344393761 -0.002457926570469803 -0.001764892187172094 -0.001077935270496599 0.002762092391639972 
-0.004840425483496466 0.003639964533620665 -0.0005460834275198481 -0.0005916086609944937 0.0001125882567439127 -0.0007905752584373851 
-0.007839780243160068 0.0007933247708149782 0.001083638428368389 -0.002524007077481581 -0.00104806065970547 0.002670898819858475 
-0.0107449982444831 -0.003836446331528103 -0.001571569207277935 0.007872864716666374 0.005192341512726488 -0.001430997655126145 
-0.007794905078327763 0.0002255490096753158 -0.003650967951971436 0.01059765721717907 -0.0001142010907759846 0.000885801800367787 
0.001524986766856065 0.00397543538858025 -0.003100671979298311 -0.0001590657257977633 -6.668260294503064e-05 0.0003452193491098871 
0.005060630819734755 0.003557383476543483 -0.005579734762854414 0.002393624755632117 -0.007446355702519064 -0.000946981917920491 
-0.0009932836371782758 0.00544561738068425 -0.003131894712304264 -0.001119270016846967 -0.006898121337997694 -0.0002861582193506622 
0.002950107502496054 0.002206622608065037 -0.004469863924618779 -0.002474868460661612 -0.003376709298700469 -0.000163720025316814 
0.004469944352291471 -0.002294520230109243 -0.00110311717709763 -0.007019513589424617 -0.003579303809295447 0.003402403133532372 
-0.009012781234096061 -0.00146453090980026 -0.002690434586190422 0.002086732911521162 -0.002249274986055397 0.003270188088210493 
-0.004911627060210027 0.007394681907525247 -0.003045185325927207 -0.004601994657133199 -0.00294542488867476 0.001341324677133125 
-0.001524212251106313 -0.001161060777499432 -0.002742391136565411 0.007905071923609997 -0.002499632816240757 -0.0004905445266461102 
0.008993171764052725 0.00703119394438576 0.006153244340817194 -0.01514932416955624 -0.008803903905534666 -0.00246717950817449 
0.004494626416743701 0.006865209479261229 -0.004351163036642831 -0.003453104149529298 -0.006375634335298066 -0.005950329211461597 
-0.003972166499510195 0.0245163048766591 -0.006940970992888543 -0.00956133391355465 -0.007041747911761522 0.006739364425333713 
0.003867370089181451 0.0008580289947713272 -0.001102595103086062 -0.002085056148959013 -0.002360882364896859 0.0001605010585270343 
0.006516093097902509 0.003798070056531731 0.0005618392454756533 -0.004203471372944041 -0.004066457088596116 -0.002549377854405586 
0.00314271848108215 2.093171780338435e-05 -0.001437050687491093 0.000105187849497331 -0.005505643745327684 -0.0007378017557361065 
-0.0001231916398627307 0.0026151505062792 -0.004133400650230388 0.004011924373984608 0.008476212455970302 -0.01288735940505312 
-0.001335947658235555 -0.002246679818005776 -0.007508020125780624 0.01586238859772231 0.0004196047764793399 -0.003185150048065732 
-0.003929731506819187 0.007454285269954218 -0.00395153876314184 -0.005234348871603177 0.00287504780142363 0.002246518151769575 
0.0007348422728586317 0.008356957919319006 -0.003758938690072846 -0.006981759385187846 -0.006434167512379701 0.003267723183053428 
0.003077947794567811 0.004726492846152792 -0.001319936521114086 -0.01013154321278885 -0.005405080271938296 -0.002935162847106863 
0.01017175837709181 0.007433780487883759 -0.001609696211084307 -0.01331317024774214 -0.003467758173364915 -0.003857256687104008 
-0.007406986433697731 0.007511231759480806 -0.002189602140360037 -0.008299245135713815 7.863732831813853e-05 0.004347784829872656 
-0.006240653151641455 -0.003046133870771969 -0.002441484794522457 -0.0009391843367309362 0.001483251856863594 -2.423112256490851e-05 
-0.01146558746405517 -0.0003128605022327621 -0.00154885393791187 0.001423846079822203 0.004603673159409283 0.002990782211599478 
0.006280529565982889 -0.001457472578632034 0.004538305771438882 0.003719583871285538 -0.006439613942423413 -0.007160145125712196 
0.008132359308000336 0.009199209429393111 0.005638740843568406 -0.007999818981574621 -0.008278099733696835 -0.01044328864151322 
0.006323505791747079 0.00964393987894825 -0.001756803991565413 -0.004463025859046391 -0.005221071340716667 -0.007831988369474633 
0.01047635391632291 0.0125590121607067 -0.005263170058532089 -0.001300851297054756 -0.01535349361014452 -0.00419883129004482 
0.002000775558470178 -0.000540107707156078 0.001057080934459493 -0.001552725538125514 -0.002860266877448887 0.000556032353186201 
-0.001034151979444203 0.0007718740656694037 0.002751409165004298 -0.001622257157410114 -0.004292368811702792 0.004804343783297309 
0.001683358964123654 -0.003220067900503498 -0.001793076207543894 0.00116209849652546 -0.002533104489815328 0.0002677600675095811 
0.003098640067330325 -0.003043398228259314 -0.01415646874194104 0.01523468896857553 -0.005875607840120929 -0.005201277343997358 
-0.003313917471782094 -0.001101789232672228 -0.001614477806972873 0.006441214008988804 -0.003483574288298954 0.001960428989071146 
-0.002580684470667818 0.008755499782342132 -0.002320710156144647 -0.008599130911856585 -0.0032309050637677 0.004484008215211248 
0.002497099430206775 0.006881842282317044 -0.006299192242696854 -0.004418941375736459 -0.008730308564968255 0.0007676207606009681 
0.01376701750489997 0.005290215437322679 -0.001718361095823227 -0.01601503482861987 -0.007362341597801609 -0.005905609349353376 
0.006829128812656566 0.009420812576886855 -0.0008668680823800547 -0.009956193841754897 -0.005581390048645921 -0.005425891100242778 
-0.007840087676833786 0.004095218901348153 -0.003617835276597715 0.006691482232852943 -0.002382386248793709 0.0003016128113025601 
-0.003214653664419194 -0.002103071095716503 -0.003679859536080578 0.004908107822889863 -0.004573434955881611 0.0008255088854114205 
-0.003664225608317298 0.002243539394066231 0.0001826939514273817 -0.00599068971302368 0.009324003237811369 -0.002524117761276524 
0.002457154340654945 -0.002422837461874951 0.008533653712361547 -0.003206476100838821 -0.001264827476960871 -0.003415998915326023 
-0.001915919780478844 0.0008398957421222959 0.007264400484115456 -0.004019458716239316 0.0009263606578333256 -0.001611313193286379 
0.0005728197905862844 -0.001526949669196689 0.0005110999219408892 -0.004082104135505438 -0.004060322955971921 0.0002506918800206297 
0.01209547143181858 0.003921653187992919 -0.001917652490948116 -0.004523607003440427 -0.009246156390006527 -0.00659012454078241 
-0.002469998638031383 0.004541446822285284 -0.001048738043360609 -0.003205326005487548 -0.002596892242656541 0.0005485982334108164 
-0.002089802563887829 0.0001797383501111759 2.656808191683527e-05 -0.002099979555897934 0.0004891631066169181 0.001890977465726806 
0.01043806581258141 -0.001561850835218636 -0.007856956196234607 -0.004914611622777007 -0.006783118066076708 0.003323489077643761 
0.0009531105869527082 -0.0004234984811106227 -0.001614428034714132 0.003459601257959737 -0.007136831375770217 0.0009279035649075 
-0.004141211643997225 0.0009564592299859648 -0.004499018475777544 0.001550592691649464 -0.003793339655799561 0.001967039834180408 
-0.0008147777485608754 0.009739819358811817 -0.00285573274819625 -0.004306743418599012 -0.003558271086599614 -0.001415325502638511 
0.0006220008991688236 0.009533864412402221 -0.005885337288987865 -0.003315258511591832 -0.006871790631291065 -0.004773727397770509 
0.002452005179338061 0.008519564186113096 -0.001099508218795968 -0.0111113222216813 -0.004659353388730062 -0.002822643998029571 
-0.001491064365968402 0.0009456935547663226 0.002229599499221021 0.0004239679597671451 -0.005691240737541636 -0.001838544386161428 
0.003211713217407474 0.007238824250209264 -0.002122160437876277 -0.001137079683599501 -0.003293467454016199 -0.001963796706169292 
0.00431973513452184 0.0003195764502259174 -0.003875940565695461 -0.004258441138394743 -0.009675682153982039 0.007578198894904783 
0.01435860100187792 -0.006189206136747425 0.002965360435414367 -0.01376257319165143 -0.0009376964749981243 -0.001511199378288856 
-0.00189619382512056 -0.0003696458698275996 0.005725667705612764 -0.003920955689159986 -0.004939365195314497 0.003069946665285486 
-0.003537181531282775 -0.00429080048105617 0.003542097822473895 -0.005498372207659512 -0.0002874224244308232 0.005932812583828976 
0.0005205083314734889 -0.005127502914247881 0.001458636290681629 -0.0024998704217021 -0.004219865755167926 -0.003547800846977393 
-0.0133288862391286 0.004155645112643097 0.002952418274698965 -0.01320240605022001 0.005453367994729203 0.00258886119548654 
-0.003841138715039937 0.003381762549839901 -0.001761834523113994 5.484819094844646e-05 -0.004371728263581904 0.001042589355762276 
-0.001836624250154958 -0.002640446998478379 0.0007576110900103355 -0.001092150172852674 0.001354392464495888 0.00127255719087693 
0.001910293627413622 -0.001835366461970194 -0.001402389079285854 -6.317798136265574e-06 -0.00481253195821777 -0.0030703918950712 
-0.003259974305419584 0.002186753612285102 0.001240323372560791 0.001412275182221592 -0.005896045016492773 -0.005903534365728763 
-0.003494692841354252 -0.001911351449683177 0.001161464262031899 0.001988204704334914 -0.002181782869968801 0.001706303675658977 
0.003413297518086379 0.005078965187045724 0.00280361455029772 -0.00588956103983061 -0.004664222346016262 -0.00308823096058338 
0.008226821519542144 -0.0003536050127056612 -0.003015085260860625 0.001754656697742329 -0.01009724716136943 0.0001938812969933854 
-0.001439107478592712 0.002885177950895585 0.001289485862355715 -0.006856104249762972 -0.00250258382060861 -0.001289920965129237 
-0.01089624997482631 -9.483777194391675e-06 0.003171306206282785 0.00290244265602493 -0.005277463700314752 0.004467162616334764 
-0.007690706131814907 -0.001676822410884238 0.003640354386245434 0.005018058254118965 -0.002391316230779452 0.002803813416865308 
-0.004802689783120879 -0.00563681862314445 0.002088024190495871 -0.001893745943218614 -0.002054723546198458 0.004686344600222565 
0.001491365043877248 0.000967456702838248 -0.001000177147939976 -0.0003264965748746478 -0.001542348173766645 -0.007828634002960905 
-0.005834371465920698 -0.004168858826280361 0.003432277013014374 -0.001083332216543798 -0.003309734129023157 0.006522548989232903 
-0.004680804613463303 -0.003756519925491818 0.005158051355665308 -0.00324728146383987 -0.006073574588152325 0.004367254839782022 
-0.0004795066658758647 0.0002401020774521639 0.001168678737042233 -0.002441922585911375 -0.005144271283092102 -0.001566237012722522 
-0.01741080524248673 0.001126215936916163 0.004479799144243121 -0.009949921772358801 0.00346439071588231 0.01104367014203699 
-0.007413818171833776 0.002563190886751179 -0.003618335465212058 0.006729419507201123 -0.008290932369154827 0.004166842071041272 
0.002697243875786672 -0.0006157375641099761 0.004246598990926757 -0.001061905031164805 -0.008924777171226136 -0.0005357589818414627 
0.002383090267942123 -0.00685281513190532 -0.000655093282511314 0.003954137297460086 -0.004185815423511154 -0.00212671211741416 
0.009642436004033266 -0.001788102659171821 0.003949902481345434 -0.004058230430085289 -0.009520938928626306 -0.008405367761871271 
0.005740761075983802 -0.002810593636927948 0.0008115026606367321 -0.001152491889630909 -0.001950602100442042 -0.002579461778881252 
0.01020107093943258 0.005076379223101534 0.001713531299807965 -0.01210215488679051 -0.00514451710955471 -0.004794961406765155 
0.005890848939154677 -0.003142021176600296 0.002923920755820267 -0.006275367905159548 -0.005661641585925443 -0.005431998785341415 
-0.005795067528068012 0.0009023118167567488 -0.003071904040962876 0.0002991199180331864 -0.003234922450829306 0.003452292442812805 
-0.005555249469613852 -0.005321861162143094 -0.006234877562734074 0.01099671716491954 -0.005212189087571386 0.004780547949749325 
0.0006757574675737652 -0.007039178170294468 0.004851803796573847 0.0008468175448394965 -0.005369756059625836 0.001761462806183064 
0.003382406941027574 -0.006549453573976862 0.001459081798280498 -0.003712969609698194 -0.003790364661231413 0.004639958248972973 
0.001380911616787194 -0.003188734440254539 0.001020517247788008 4.08730416176699e-05 0.00579691877949619 -0.01290684535210301 
0.0005558415120923337 -0.002352671194290798 0.0004733916849777515 -0.001706537869968026 -0.004993107123354316 0.004179674700045685 
0.008397253043298672 -0.004154543168595798 0.000935592342255837 -0.00367611415446639 -0.0007802300584930411 -0.0005714031087278938 
0.004559775598740321 -0.00259178764346165 0.002051305620319496 -0.004310285844849673 -0.003294236686418849 -0.005084116346961306 
-0.00779054114495024 0.0006934108349686044 0.004479087393187252 -0.002757764942931735 -0.003045525421246474 0.001991520329391025 
0.004369323414291113 0.001330643646701428 -0.001973584978719246 0.01115436536846148 -0.01157471645912828 0.000576156941319002 
-0.007170090827069218 -0.00445377333754848 0.004416394098412161 0.003030533599850534 -0.009792657848888322 0.0105791233020441 
-0.009191051234054384 -0.00732136922283163 -0.001350669065104646 0.007484303483202886 -0.00536013481878286 0.005366315662089688 
-0.007379178900829527 -5.986168350926787e-05 0.001644585641492653 -0.0004716046932721464 -0.004682999091786458 0.002047397754565995 
0.0002984150943769881 -0.003736990492043293 0.00296409322423004 -0.005205035757494868 -0.002685037105897538 0.002906493332957651 
0.0003967060687471943 0.003593584062969246 0.003129058112820005 -0.01047302749243111 -0.00710805004291064 0.001930129307914719 
-0.003312741685517358 -0.003229723593271958 0.009951955211507482 0.004092071026274345 -0.006141806060355057 -0.004351519464526411 
-0.00227800709017945 -0.005723451355728657 -0.001699610094334118 0.008515921327182352 -0.00305324077529632 -0.0007792496447871384 
0.001548296449137153 -0.008129971716489574 0.001203578326615001 0.002619634951040326 -0.006587779041698415 -0.003520686690583407 
0.01109336940814253 -0.006482291392489227 0.009873458352008825 -0.01523469791971185 -0.004864590610609208 -0.001001476961741036 
-0.0004434129337835205 -0.007621096592722951 4.188576738806244e-05 -0.001987074229224591 0.0005060079568492393 0.001778026430388422 
-0.003373025177159828 -0.004633510484566542 -0.001283430988339159 0.003718711428808295 0.003706088799407925 -0.003918310251216244 
-0.001861415480262295 -0.0008097307905591944 0.001256037909338714 -0.0034471249319459 -0.005965409416988175 0.002913987391490636 
0.004047565307636592 -0.001966247302330644 0.003765047983179903 -0.003446007667386453 -0.004482597839358637 -0.001224202955298259 
-0.001390638194710584 -0.004529655679710339 -0.001718545295293529 -0.0007478946372204092 0.0007301431981516764 0.001161269728447594 
0.005712041146802117 -0.007426388376599631 0.005141146677029894 -0.004073079504980477 0.00498063246416108 -0.00368644746728492 
1.440587422775655e-05 -0.005634412614804627 0.004380446597981231 0.006706614545310263 -0.006702848745529265 0.0003676574316588349 
-0.01266810550419447 -0.008011132154468168 0.003537879969282827 0.0003960499300861489 -0.006417656119995534 0.0126341858124209 
-0.01323705668664006 -0.006075816584400773 -0.004123523479926853 0.002469612358011094 -0.00299012276997436 0.01097391503792629 
-0.006497850245787155 -0.004016854316661678 0.0005617220918162048 0.001677264980451316 -0.005450522787238211 -0.002056127307444335 
-0.001953455639745878 -0.00282460933165413 0.00038004746846273 -0.003901661193365072 -0.004434396963270112 0.007543114217700722 
-0.004142937120877083 0.0006142364486779027 0.002101924098831785 -0.006645751414590762 -0.007944811341764616 0.009149050869663188 
-0.001407947010247341 -0.005169479438489533 0.001515657818797316 0.009289161977762049 0.005844726940832932 -0.007323493499264671 
-0.00446270376466689 -0.004752081509881525 -0.001061593575330828 0.004216702235449472 -0.001352703007309254 0.004876710482669766 
0.0008303605942382932 -0.007227574417272396 0.0004065350566100993 0.005862220202074748 -0.004749883967368569 -0.0008533115407193537 
-0.006697154153156521 -0.0002603877558901742 0.002609845304342617 -0.003949199920249508 0.001079769315295324 0.006987477037054631 
0.003103712601003231 0.0002466715872411365 -0.002421550728155633 -0.0003604083513730652 -0.002212124683962162 0.001630885160095936 
-0.00689016039627349 -7.812235848885928e-05 -0.001201512687087368 0.0005529627770651462 -0.009762795002043518 0.008766987842193399 
0.008759789062880351 -0.003850373702197707 -0.002074215937707642 0.001020146339214758 -0.007942062214001514 -0.003039476498808336 
-0.002943684866895014 0.0007672939536617009 0.000354968175893117 0.000114051762033702 -0.003825794543117439 0.001451718169389302 
-0.0003241643502329191 -0.00210821020106908 -0.001939138506415372 -0.001003083945696484 -6.351129467752684e-05 -0.001214261765399604 
0.0006066434135380737 -0.009049082419643917 -0.001522219515655741 0.008477660333376109 0.00418076421462671 -0.002676474305096807 
-0.009675375197006786 -0.005002640804227292 0.009759023220833838 -0.0037719021155416 -0.005357215721081826 0.004552682756075542 
-0.01216341674376784 -0.007145574563486423 0.001858600442117154 -0.003971449358366323 0.00621078789499168 0.001455774847059305 
-0.002404793666428631 -0.008158714581937189 -0.001461916534930425 -0.001788945793808512 0.006032597770180999 -0.005563505578519259 
0.0008972555074469986 -0.01332563888210207 0.001059601381181239 0.01479820296985447 0.001178252298971243 -0.005013252528560557 
7.671282393755602e-05 0.0004043162108690481 -0.0001787655324201531 -0.002246123126126265 -0.001947606834184847 0.003164581315326558 
1.023722128497279e-05 -0.001792667857523754 -0.001287387057398552 0.001456942178268534 0.001095911482254056 0.001009941540286164 
0.008770170688577886 -0.003888329548937542 -0.004830259034537417 0.006845959763530087 0.007446992572352614 -0.00554381845528507 
-0.00587833537662977 -0.002981839753140738 -0.0004576375908908593 0.004570633003371567 -0.003469103276384635 0.005219379848930126 
-0.00464235806394174 -0.0004333872227378068 0.001825386054838326 0.0003490624075217757 -0.002732103779975334 0.002223249775782798 
-0.004317111261816893 0.000572418032164536 0.001035821675003517 -0.0004997633473449427 -0.002334446859382268 0.002340459012159369 
-0.006770689268303366 -0.001470849050569825 0.001204255468591048 -0.000542863696969024 -0.002642046977836543 0.004256579744448704 
-0.007956168667329096 0.008456837262647857 -0.001914556997711951 -0.006226934172214605 -0.003058264246363643 -0.0006784764726976818 
-0.003247018716254067 0.0003326343532922446 -0.001289586930765713 0.0001505793839169276 -0.004118705014680906 0.0006016286529341454 
-0.0007988094205349294 0.002026504094612555 0.0009843358287745555 0.002408442874642637 -0.002469234985726485 -0.001002106850447448 
-0.002816712327671614 -0.003533565782227834 -0.0004700649281428443 0.006276348135146095 0.006134278071738951 -0.003241775790271351 
-0.002629516600372938 -0.005355597896017678 -0.002036691715487767 0.008008005560458853 0.005048978635369719 0.001127183665748551 
-0.004641854119338193 -0.00399508386398514 0.003594463294683189 -0.001511779341142167 -0.002900254513199172 0.001748952390355193 
-0.003618542471754123 -0.002497795691179376 0.0004327028371024902 -0.0001336993108828547 4.221189776188417e-05 0.00227593823873546 
-0.002310832661621266 -0.0004272053022567899 0.000508173840413053 -0.004826179353654743 0.00212390666745086 -0.0006207807738887996 
0.01462331491075487 -0.003957090702847822 -0.00061436212357221 -0.007564564624930825 0.01191855427740435 -0.01626712694213976 
0.002660265923043798 0.001234745608091004 0.001054415718521048 -0.004595454380713382 -0.0007351303769353052 -0.002168332146196478 
-0.00280932910693671 0.002406074024437848 -6.6316700181078e-05 0.0004110458289233567 -0.001710733288432557 0.001179847834049013 
0.01037909748223404 -0.01142183679552244 -0.005480171126634676 0.01496683900801455 0.002028597775136926 -0.001057389543807718 
0.0003087758066976283 0.0009770579139095706 -0.0001548440527308486 -0.004387654663699822 -0.001110484138667767 0.001825526768348695 
-0.001607454648681458 0.005119632862168984 -0.0007611276328704207 -0.003428034361286584 -0.002379481169443462 2.000708441113243e-05 
-0.00193780001449354 0.001738143111515921 0.004108649953386808 -0.005646375982165177 -0.003317369151444523 0.002467539441015598 
-0.008535388491208796 0.002519808190680965 0.002997864609274779 -0.00820735687844169 -0.001542385579040475 0.001869093040079283 
0.002916611558019959 0.0003690832824773188 0.007224694411223152 -0.007333835771665707 -0.006556585719039161 -0.0002454183066735524 
-0.001202024883907487 -0.001343946341690757 0.009924815136342953 -0.01540103943477339 -0.004597056371302016 -0.0004069801463343547 
0.001384111028655409 -0.004690334395944191 0.006677619307302276 -0.001005083277316596 -0.003244234548659398 -0.0009059429788409938 
-2.703729120342184e-05 0.0007613625514928844 0.0019604503441304 0.0001548602221948176 -0.00130943858985675 -0.001652490255171646 
-0.00311838284104869 -0.004127468424849313 0.0005015709480761073 0.01344456656789178 -0.001345206942918234 -0.0008362852735756486 
0.000212517417797296 0.001012350680908459 -0.001531110628969982 0.001289165291076444 -0.001621756755822888 -0.0001248034619513282 
-0.008667279657032463 0.002530485190702542 0.0009203283387592042 0.005613577205934752 -0.001376141351885314 0.004093965459510933 
-0.007953251983616043 0.005032647294069043 0.001824856073111316 -0.005364863259393118 0.0007997652933712513 4.961049694762572e-05 
-0.009483549592996675 -0.003249533002555239 0.006901950250922531 -0.004428980001363257 0.008046814357944257 0.0008237367314408319 
-0.005340793777447796 0.0002449227652317933 0.005299713169033466 -0.004366224870043559 -0.002580590677351375 0.002514158722160703 
-0.00935028291934298 0.0001380649203444928 0.009331184415683671 -0.001530908363664807 -0.003447522607296691 0.0008561668886730032 
-0.008888233947065794 -0.00608752266448479 0.003736982729086367 0.009114982938403656 -0.001851670364641948 0.005694563029882596 
7.480358366211818e-05 0.00456435704483647 -0.005727453351045523 -0.003438264501947491 -0.001103441141043025 -0.001655773180950456 
-0.004270856061132003 0.01490690583504921 -0.002364431341992431 -0.008206422867989682 -0.003221747126205861 0.001690378128224773 
-0.007143110016981118 -0.006174958421627639 -0.0003221296264703855 0.001829822675331153 -0.004782611372080137 0.01153846135115617 
-0.008114116975216284 -0.003443876984248198 0.004053008352736726 -0.0007094908320475076 -0.001575023338288028 0.004670042600480726 
-0.002325670354456048 -0.002992970058305303 0.003405560005990983 -0.005512294362822376 -0.007183771468204073 0.002639944461173102 
-0.009062712008127846 -0.002491470820858854 0.01036847666687315 -0.008267554423248643 -0.005751887262779341 0.004767032708599144 
-0.008928433380219876 -0.00461545326532637 0.0104447470107991 -0.002347082656970557 -0.008454656608670274 0.006402506278233367 
-0.00792676898235228 0.005394344477212498 0.001176653164557788 -0.001586910098623712 -0.005942128973297319 0.00423313367933176 
-0.001130137698961504 -0.006321930769603127 -0.0009000595932086512 0.01464399007615027 -0.00571343718639585 -0.00190405964804729 
0.001325184958570067 0.005885456873019135 -0.004905264174035243 0.0006123182894175227 -0.003813022655303869 -0.002728110243387042 
-0.003232728539669231 0.002548923146921141 -0.0001779548394713185 -0.0005401812952867309 0.0002528541841772891 0.0001331782520161725 
0.001198297183963464 0.008335254276844499 0.001152814318545158 -0.005517999557860107 -0.004926692136213736 -0.00124000186036004 
-0.01493887547153554 0.001242585258353069 0.00983965159577499 0.002806779489953798 0.002314806197616831 0.002515867846068369 
-0.004871011936157176 -0.0002444445101227446 0.01245908538323133 -0.0107398358392064 -0.005338553906499975 -0.0004832631425921483 
-0.00832950758435023 0.0004514479601954903 0.01616844544956998 -0.01007603861552175 -0.002977709227313512 -0.004125941694843823 
-0.005807822685725239 -0.002790429473420847 -0.003495613286451627 0.008358443004260138 -0.003561682016295196 0.003631922448149245 
-0.001844143643947598 0.003834804536503201 -0.006052960859370009 0.002479512437596683 -0.003153614712729381 0.003060577902004312 
0.002783551199676587 -0.0006334952378346294 -0.002826667540599458 0.001214666460016416 -0.005017353924021666 0.00230437259209096 
-0.001716592097059314 -0.005381493043744708 -0.001999368250967768 0.002560753010495311 -0.005089026885608416 0.009756941967253937 
-0.006277454321309732 -0.006577036527689331 -0.001130562959436198 -0.0006022534256339624 -0.007106301445510618 0.01128728270326517 
0.01342278216435883 -0.009508369532253138 0.002047121351203606 4.997458199576556e-05 -0.008813239230828489 -0.006158302821685826 
-0.009187801774133687 -0.009324578468353948 0.01486423977362411 -0.01147227670135188 -0.004970812269393674 0.003869580102958498 
-0.005139690233377117 -0.004350621656256545 0.01765394488537726 -0.007487865208275801 -0.009334716881498313 0.005222802410227963 
0.002425559089325758 0.005118824765494714 -0.002375994021794839 -0.003271736245867198 -0.00844052952428747 0.001604658508491199 
-0.002291825281926797 0.006794807294346259 -0.005863823858827956 0.009751722673979921 -0.003506275349976432 -0.006109250038454922 
-0.001209920450921759 0.008863373227454922 -0.005481513425154328 0.004844070977790085 -0.007260124029420774 -0.0030544529454162 
-0.006552942946495759 -0.0008072352820427743 -0.003052012374280765 0.01354633478664093 0.002219758739597657 0.001726243807334288 
-0.005091393996686277 -0.001311658049757372 -0.001447160139313842 -0.001106853862500936 0.003361019007961923 0.004951325612875129 
-0.01709309676935276 -0.0008513582838969889 0.003254872391763396 -0.0006089266540257287 0.008995996313354839 0.006314275789350179 
-0.009395298789707374 -0.00476725076808706 0.01430533030967046 -0.004713612630238372 -0.002584151317827096 -0.000283074759213169 
-0.01212806159350001 -0.008294851511100602 0.01688199547247161 -0.0117766383591612 -0.002595021951657872 0.002602239045538225 
-0.00950302103942924 0.004965693118805453 -0.01239443140490564 0.008251706230886896 -0.003019925347874501 0.004655372046497357 
0.0007532353966860383 0.005932309960464974 -0.006096977445124431 -0.001385990073973292 0.003585400454676405 -0.005390612158423928 
-0.0005924720845540106 0.001311141406142479 -0.004721692089916292 0.001172859613170814 -0.001223942948878456 0.0002379193102581898 
0.002147796784476321 -0.0063291017348056 -0.002943862819980775 0.00318380683438194 -0.003016686831771064 0.006897029288156217 
-0.003684989894024696 -0.007125184462734903 -0.001352781020772755 0.00236770038395812 -0.004289753047522752 0.007751124667497863 
0.00119205423484725 -0.008286156928992389 0.002848650067825488 -0.001792360219845362 -0.007703482187890762 0.00835731509762222 
-0.006564508354261798 -0.002305162724029869 0.009947394609334846 -0.008275910692246107 -0.003979359948727615 0.003116676720554759 
-0.003609663072494412 0.002409873977459976 0.01276868249866709 -0.007706203635246917 -0.009318414151429104 0.000981211704913399 
0.0009615717066269081 0.004560292331308128 -0.004683140868479817 -0.001558562862618017 -0.005214549816040362 -0.001777141643458115 
0.002737169829713328 -0.004316079543927884 -0.004685709655599412 0.01465052302146186 0.000632772487994413 -0.01001733259483644 
-0.01048825834913388 0.004604533889889578 -0.001755185693368063 0.006439805884308917 0.005304261941575072 -0.005524154312538152 
0.003500641587305225 -0.003267942944299261 -0.00701932921334318 0.01219834558889041 0.01037137351219664 -0.006829175446649394 
0.003333054527029045 -0.006234325357896081 -0.002294584823336589 0.002655846401344864 -0.001386931234662574 0.003972783709452927 
-0.01844301781472999 -0.007263001175850422 0.002300078545870123 0.0001390430685047269 0.004797990573777918 0.01283560969006677 
-0.008110583922429162 -0.01030746203116351 0.01556738079325483 -0.00781137514303974 -0.003009160874564041 0.000273663644384529 
-0.009276641560329335 -0.001763756647312554 0.008021425671863473 -0.004282788773853559 -0.002066772605315408 0.002376436310982315 
0.002079968132845734 0.01705434729878009 -0.007838615780656765 -0.006918010543417106 0.000501151489863309 -0.003327065574352568 
0.004442453868158872 0.0110372317660447 -0.00831392683839946 -0.001352336378333406 -0.0009559863026224513 -0.01003186967893358 
0.003326953670164164 -0.002345800948618326 -0.007567606551985845 0.01040859184077426 -0.002635732939470381 -0.004268243464302478 
0.006861660078064968 -0.0005800828493330493 -0.0116078257156619 0.01021437367829755 -0.001363450071302599 -0.002772024119784161 
0.00429327420525741 -0.003902709973332743 -0.003768426498312258 0.005514663424561497 0.005365212339860115 -0.004742978047105271 
-0.01099680194668068 0.002612180439896058 0.0003249516687407991 -0.001500132570067825 0.00466255041400979 0.005443687294312457 
-0.005378842028984383 0.005650434162270951 0.007753395402640615 -0.005867028268268747 -0.008549312612356768 0.001066795057495677 
0.002245533734968706 0.006761842500858855 0.003990316485486129 -0.002949064568672435 -0.01250679942137306 -0.001493092788584368 
0.001862544177132852 0.005862203279857684 -0.005927310059856045 0.001409903621723327 -0.008185864173845984 -0.00110527275128805 
-0.004865577655696529 0.005537027369795173 -0.003911849049184186 0.00869592404927289 0.0002814492409947205 -0.005687859233855832 
-0.004294920892146943 0.002009106003343918 -0.001432273698677767 0.001684035526294027 -0.004171177108371997 -0.001444815198462265 
0.002054087666038243 -0.006829595718998807 0.0009628760687212104 0.002831042622456985 0.0007762052379518598 -0.002870448668442156 
0.007725349150062681 -0.00748268146136325 -0.00127573217404401 0.004716249864668419 -0.0009524897142313488 -0.001685206522538178 
-0.008478788519908997 -0.009298685851036024 0.005019446967734524 -0.005653220947270789 0.001989088673835796 0.009511230814765624 
-0.006158571032693886 -0.006562882023412347 0.006203099753644137 -0.009962161607461528 0.003072162532356872 0.003491400383289727 
-0.01279301197149216 0.006200695239552772 0.0006353305751588111 -0.003051666580878536 0.0014291906146838 0.002528901769008544 
-0.00256457670877356 0.01366978749144626 -0.0167474656670852 0.007188417249589127 -0.002509824090284207 -0.004314551259280337 
0.007118762151364158 0.008161747790428959 -0.00411195563966991 -0.000981285228723207 -0.001005130295612662 -0.009983584823625236 
0.006777968746144992 0.008317084576945124 -0.006833387819521058 0.001107192725732996 -0.00485642720280345 -0.003734327291331434 
0.002027694079096712 -0.008009339167650485 -0.004024025175650635 0.0113716736944609 -0.008198032942531406 0.006259089155860918 
-0.00270936954539913 -0.00209208675838338 -0.004460096571295184 0.007098059565901405 -0.005849246814649397 0.001559409997673367 
-0.003521765504539121 -0.003564148882129807 0.0001141220697216768 0.002094253621205943 0.007102526861712392 -0.002472602460674908 
-0.002560616631379025 0.0001261330571745749 -0.0005269522563950316 0.006305628269914487 0.0007331511458135786 -0.0009423812633378186 
-0.001728079289813218 0.007194729963953221 -0.005558448144786216 0.006122317990500055 -0.002748222924450374 -0.005515039060927024 
0.002714219385808301 0.003991935399301203 -0.007785722961599882 0.004368675638422962 -0.003706280820437818 -0.006076512625313506 
0.005340811111614824 0.002974880504758948 -0.005939721677882781 -0.001730418523042302 -0.00758838356561461 0.001104767198189569 
-0.0003457196008379842 -0.005172898325043323 -0.001603022872477539 -0.0007752411934619608 -0.005518941209033802 0.003793538543261934 
-0.008161298411309728 -0.005767548339890956 4.15912329735091e-05 -2.94963979387617e-05 -0.0001556861214608888 0.01060626223894159 
-0.00541489754071611 -0.002700923519379631 -0.001631734157657465 -0.0003730035498515384 0.001176367444878095 0.006268683647022967 
-0.01131943360445519 -0.009462809695333019 1.784475571553029e-05 0.0008290883486236962 0.01312766620485345 0.008989999824615713 
0.0003174445480109657 -0.003197170777134167 0.0006945235968011356 0.0003589137228513322 -0.001128121402652136 -0.0001267481751747066 
-0.005430631234699244 0.01361445537453814 -0.005339736537025398 -0.001899256363629618 -0.002918355439113819 -0.002180175466628878 
0.01291480479744868 0.01894108269177191 -0.01450118987571899 -0.001408452900589634 -0.009766684958262233 -0.01431556624984355 
0.01302831858858654 0.009657610733545251 -0.003110843660177282 -0.01011644130128885 -0.004768651669187151 -0.006345208619887184 
0.004649437659029668 0.002913135282695943 -0.005304406375884321 -0.0005530799510327026 -0.007556393573025868 -0.001283463558870518 
0.0002334977516569303 -0.003076594801540444 -0.003169530312623467 -0.001444337038913134 -0.001978323155772576 0.001408141012850241 
-0.009132240659838085 -0.005506306348529653 -0.002139513849777613 0.002486568841781786 0.005736238417433976 0.005234440412350312 
-0.00882197558303152 -0.003753850059091483 -0.005627878664276833 0.009143937449076907 0.02094375224396855 -0.005442649743688121 
-0.006223312870180827 0.001545408460467602 -0.005495822021502533 0.01093968815443834 0.0007123948778208219 -0.001582505931392947 
-0.00358436600875553 0.001756417746667761 -0.004358512611576044 0.01305861815972773 -0.005750561858242992 -0.003251082050911238 
0.003532208159334797 0.0008121654384850382 -0.007905276014844986 -0.0003390415422253641 -0.008373888593161655 -0.001080294244894335 
0.003628006025892536 0.002647609620562481 -0.008719399855000285 -0.001686229266932191 -0.01449072533095263 0.006855953415446827 
0.003688118131786968 -0.003584614192726041 -0.002964792119514606 -7.863470446105802e-05 -0.005931076680081713 0.006235738128916573 
0.004462903862820768 -0.004680162385755906 0.0007977011135357692 0.0003300210539435362 -0.005061668400349333 0.003464303179240171 
-0.004281850596218066 -0.005296527546556277 -0.001133162867619048 0.0021503706165596 -0.005086908031987926 0.006794446136055982 
-0.01564202234945811 0.0006773826399783276 0.0009303265293648311 0.0009503613511353486 -0.002373874339541282 0.005208220043567263 
-0.007241410608222922 -0.005363794541828796 -0.0007684241300266741 0.0111411670578956 -0.003972876260932132 0.003338338544814255 
-0.0004946220676522333 0.01281870209651952 -0.004821761618341119 -0.0005342735963897472 -0.003512968046764433 -0.004841275653646187 
0.008376581582233108 0.0173154687135158 -0.01280387445269897 -0.00128528809799824 -0.008347315454832879 -0.009406365533072308 
0.01804283599236934 0.0008637756890522351 -0.002484900032713385 -0.009564535742362042 -0.005838295529293373 -0.0008682435893821338 
0.001063660167211819 0.004948552195871613 -0.003705443781006125 -0.003272799813537714 -0.007166681073430866 0.0004480372190349945 
-0.005224883960498003 0.005122731874007421 -0.0033834917507118 -0.005045842814422617 -0.004096150043432335 0.005526247553546097 
-0.00448383549538434 -0.003789281817766871 -0.003069536430573155 0.002259496978789146 -0.0008453312759078643 -0.0002789074869760704 
-0.002287083518031916 -0.0006530948400047411 -0.0008803434451505392 -0.00196544584553986 0.0003858402165853208 -0.002777795200362453 
-0.0002930809742920439 0.002150215930117004 -0.003910397100394471 0.004851341281715121 -0.004105863551539044 -0.003491277587810995 
-0.002515846781658289 0.005769318759028683 -0.001008052237271548 -0.002134452117920271 -0.004187387533426933 -0.003760819607003694 
-0.001702810539511046 0.00289219834133486 -0.002952934151728546 -0.006082831386952041 -0.002474787193023673 -0.003665890788466079 
-0.007009417670676196 -0.00991610049567178 -0.005728250973183872 0.001929487112692534 -0.003993505172901924 0.0089230773017309 
0.006690346169123941 -0.005918142201350393 -0.001369032682447125 0.0001087092626006669 -0.006431580630120276 0.001701658508276014 
0.008241387618831954 -0.004415003799236443 -0.0001265102711697558 5.335369166871195e-05 -0.003106680356288316 -0.001014407333245888 
-0.0002564707209802113 -0.001337269763482472 -0.0002463620766696482 -0.001888161203686477 0.0007966184009115528 -0.002206141814502711 
0.006969807584108489 -0.003722536596614114 -0.007121657250711104 0.007879594956502603 0.0002096636347994617 -0.01123170801981132 
-0.006198541671931753 -0.003062511731402851 -0.00932391861634729 0.02306931845701081 -0.006404406266486481 2.273970484605488e-05 
-0.003937813234017098 0.01494723699931831 -0.005024095972711995 -0.002636950426054382 -0.008143191710049987 -0.0002200701040686217 
0.001696879116355629 0.01808991879030447 -0.004997429479989254 -0.008386404466188473 0.004035100546356758 -0.008470117628523191 
0.006810537754176565 -0.002045909096290112 -0.001888377283701252 -0.005807004004331439 -0.000565480267135829 0.002507517358171864 
0.008813069153342826 0.002321448130695728 -0.001130790666504723 -0.005069679154667729 -0.003291071656305852 -0.003199169684469994 
-0.0005670535399835878 0.01144525820096948 -0.004095685271251354 -0.008268009113100154 -0.001267620196985665 -0.002961737920230932 
-0.001041110456108709 -0.003273096296018332 -0.002425938384307363 0.000661812647785458 -0.003991782106363411 0.001535458167805038 
-0.001825862722445402 -0.002109355018375899 -0.003542202629864102 0.005015159325123103 -0.00105333996219878 -0.001103438955055214 
0.002873633952991298 -0.002051361064081446 -0.002843392993422084 0.006884597306857416 -0.004109216140501321 -0.002394654844714053 
0.001674629463993573 0.005919392804971282 -0.001854753048817198 -0.003100867532906502 -0.009510544181601062 0.00200306815255732 
0.002449488174970137 -0.0009843787992435331 -0.004731318445067133 -0.005961922786994885 -0.002659453628032944 -0.001000622107761903 
-0.01347766002205204 0.005712254088171127 -0.007278510952428451 0.001665929690737548 6.911235978600619e-05 0.002663538411509762 
-0.003039998092885663 0.004782973492860543 -0.001381708586010174 -0.005035986340820758 -0.002742059899451672 0.0001254376672616913 
0.004325680914231992 0.0005863256372853171 -0.003686814678845203 -0.0005700630323519929 -0.005189051172136985 0.002537299393566356 
0.01602693337550605 -0.002131483439686248 -0.006460973094661344 -0.00479244269895504 -0.00755567341183276 -0.002515965390646215 
0.01306409552340889 -0.004033759992008454 -0.008579936280728935 0.008469286756269288 -0.007103368531221174 -0.009818881990542705 
0.002663760091446529 -0.006588830997572836 -0.00926693512578677 0.01238001133319499 -0.01141918734627554 0.005405446732352623 
0.00838929128521174 0.005128428355858108 -0.003502877202625942 -0.005149217941846831 -0.01285877611356847 0.004328626734714121 
-0.002024564979493257 0.01843740341632781 -0.003342025915437699 -0.006097986042472208 0.008481099507047811 -0.01169728990278657 
0.01604505988522286 -0.0005210819158777124 -0.002037632672831499 -0.01165557166661383 -0.006866652394730639 -0.005257919609389592 
0.003531529530402974 0.0002861761957079743 -0.004201922990335035 -0.0005787988161716683 -0.005048983151219934 -0.001400244207116028 
-0.004400404706902885 -0.003723575297640575 -0.001473206852301053 0.00670250037402441 -0.001278647654245897 0.001404751926438817 
-0.007495604023159081 0.002527233553051942 -0.004221190976190599 0.006425281468515708 -0.006257348590044452 0.0005452644901301233 
-0.002805155014894502 -0.0005404628692908177 0.002300968541472968 -0.0005590006048613689 -0.001060096048393656 0.000841117197669383 
-0.001102370537056422 0.004345798092630284 0.00352782888371122 -0.007197236952651475 -0.004390629448362339 0.001494168521230483 
-0.004006348430367975 0.007484337428186075 0.00106912562033772 -0.01017079948178986 -0.005992159173055111 0.005205759722739014 
0.009345310482214562 0.001227794626021979 -0.002493500222769759 -0.01116120563495044 -0.01127028623253138 -0.002492260585077138 
0.004938057735128265 0.001061754527615854 -0.009469244736959466 0.005386389656703269 0.003723563056697001 -0.007658737764542568 
-0.005178726315605735 0.004229891515895708 -0.005436772302622473 0.001328362794987493 -0.0003221352910678288 0.001671514624891085 
0.006541154377572907 -0.004911581074172445 -0.003040179666412575 4.321691654625787e-05 0.003755324759302696 -0.001196081758434566 
0.01172975642359325 -0.0008231560322044201 -0.007752354497237493 -0.003165465186223576 -0.002562587072491603 -0.005806023628094156 
0.006973031343009298 -0.005493650558855419 -0.003168916390453844 0.01021366128170014 -0.005650816672850919 -0.004334716528712955 
0.000197525751022616 -0.007257213950857985 -0.004156781327864321 0.003131619410684908 -0.006047741535696065 0.005885391935696867 
0.006734702528794911 0.0009187270870536385 0.00134812604590686 -0.004516885992763899 -0.003706867536501879 0.0003381997533795227 
-0.0006962756384308361 0.01388938763173292 -0.003379437654574559 -0.006864980304377881 0.001534791613845035 0.004285856562384283 
0.008217690464256149 0.002548549117426394 0.002019875093125493 -0.01049858634243543 -0.005997456311057272 -0.007718238819376159 
0.0004041307436703246 -0.006589665662403888 -0.002089703287721231 0.001321928034573811 -0.005710531429372495 0.00122017080004192 
0.003816682832830985 -0.007600336263977286 0.008501980291191175 -0.005887369917104476 -0.007215382288348726 0.004664000765112359 
0.00944396323392681 0.001811315433143799 -0.002642135466869801 -0.006146801118800519 -0.008428649845581851 -0.003182451631300016 
0.005770980255814248 -0.006333555312084297 0.001204365818201991 -0.0009325366397852189 0.003651855526655043 -0.00365610399679382 
0.01965535293379848 -0.005750006933723665 0.0004246589462790442 -0.004110138971130239 -0.007418339563115954 -0.002076591552522265 
0.01145509911206309 0.002556554744641382 0.004651106296470838 -0.007811246635048069 -0.01081152308701597 -0.002738346412177197 
0.007249642468577585 -0.00134840685451055 0.0009283464977147967 -0.005693370868028716 -0.005350523384788871 -0.005913543092737839 
9.627868725260392e-05 -0.001000318312822954 -0.0004733381408750831 0.002135888670177752 -0.001980852931395172 -0.002632585160299124 
-0.01604241504503966 0.003795776507252619 -0.006312988552199676 0.0090687128706346 0.0005483567534019302 0.0019116184089169 
-0.002160583607824531 -0.003589619986030177 0.004202281422598693 0.001643760986598132 -0.003163356240093587 -0.003387294867773749 
-0.003660311619567957 -0.0001712386462214535 -0.001641962460574378 0.001455756957575242 -0.003559429497714 -0.002513718300446397 
-0.009416568696825705 -0.005955268289849405 -0.003062394586302827 0.00583789168857749 -0.003422180413411067 0.005403679640259654 
-0.00214308042243312 -0.005747427851268216 -0.001851329423531689 0.0005616229221173414 -0.002505950330001699 0.002675456210935071 
-0.003595648190411705 0.002061868934331395 0.003188529667046015 -0.006057312413474231 -0.005349339417876161 0.003085498457494797 
0.000924584660901346 0.01368024296081447 0.0008783562875129025 -0.0121686200585379 -0.006002441581498845 -0.0005521328473784258 
-0.001112673051564135 0.007734655980436029 -0.004785356577497967 -0.003340085942731797 -0.004709869989178491 -0.000193293910358708 
-0.007814856616390309 -0.01231500618884357 -0.002494343658900956 0.01425328308332757 -0.00248781013259346 0.007124200976596578 
-0.007317541412645487 -0.006296717050407449 0.005380970356843786 0.003793166362798037 -0.007305602100678025 0.00522775201152798 
0.003351875720159945 -0.005679623867285558 1.439172807951597e-05 0.001412845263644537 -0.0009125204287991437 -0.002933781665265659 
0.01493909931831476 -0.007188377165016455 -0.001013142402237204 -0.003659991093029741 0.00639345407348457 -0.01103220818708652 
-0.00221821060467929 -0.002042879534795898 0.004622998556175472 -0.003687850854691565 -0.002275572238109168 -0.0005379191406966384 
-0.004036035278628769 0.002730296968124979 0.008301102108440454 -0.01116057602872803 -0.004447265855831399 -0.001131596217756711 
-0.002510885651428954 0.002596709963677534 -0.0006788657165330296 -0.004540837971065613 -0.004732428051339964 -0.0003963430917610223 
-0.004561554523660997 0.001568607997002355 0.001723201658459903 -0.01599288333266388 0.004571102705997883 0.00727890278768997 
-0.005724692849219509 -0.005589110412337516 0.002216023203566234 0.004877539093119818 -0.008027798857007187 0.003481245026975886 
0.01142014643472543 -0.007738832164018243 0.008195111768668816 1.802086805647296e-05 -0.01345648548727652 0.0004700694095259213 
-0.0009808112943953374 -0.01055128728592092 0.004159708933991937 0.003214421571141 -0.008144001930456793 0.001362378537728877 
0.01854733220330944 -0.01417226934680918 0.004748213438268404 0.0007666701775295312 -0.008582128489829586 -0.01045267345775507 
0.01332772621355566 -0.005134404910227717 0.001184843592307273 -0.006242289634132216 -0.005461005498638035 -0.004567380687914547 
0.0001278615378961475 0.01621913838575975 0.001192367094418707 -0.01394281668499665 -0.009146914944947557 -0.003288684446943602 
-0.003237210916280278 0.01483422501585378 0.001340863066261651 -0.01233007984215363 -0.007877093681176558 0.0001845204765303826 
-0.00792640463211507 0.00980653775522203 -0.001621648487961768 -0.004550491287436488 -0.001720977946765974 0.002796855097027051 
-0.002527211924186466 -0.006654338925921869 -0.004027039940909768 0.01095026843266609 -0.007032679152236012 0.004459612033864206 
0.005154512192499827 -0.009353811303335974 0.0143090243846875 -0.006880636368076634 -0.01255865302376795 -0.003340482964671504 
0.009722468137729437 -0.007039806384280628 0.001087529934061458 -0.0080851981847715 -0.004837107608220512 0.001026043423212117 
0.003552976060113146 -0.002143208904035062 0.001045836780304181 -0.00632888714469352 0.004838502630120863 -0.008467984146795126 
0.01082100550004401 -0.005984974359749579 0.001025410294480591 -0.004430001652294212 -0.00566934980071721 0.001046283505854303 
0.00648726608604267 0.003681026019721954 0.003228728668478763 -0.01230663604812276 -0.008824138830129719 -0.0004490430341632092 
0.002769738595806885 0.001876747986414088 0.001097453946216769 -0.007733888951516129 -0.006664312421856978 0.0006974182997854773 
0.0006608499846076274 -0.009459852819341039 0.0013036840837032 -0.005468103491766825 0.0008240156499567429 0.004274939910272095 
0.001933321299901209 -0.003648549101478852 0.003447351144175211 -0.001129513603845978 -0.0151113630106651 0.008300855025293506 
0.004204971148895004 -0.00707973859219246 0.006252747202460456 0.002493550426302314 -0.009300919246139574 -0.0003792094235569087 
-0.002516574822317331 -0.008464474397398801 -0.0005536331061479975 0.008369455769648702 -0.006397961458196289 0.001790832778738367 
0.008316413606657306 -0.007121307820079494 0.004829011169491935 -0.001644317707648986 -0.006952939664901721 -0.004994446124741385 
0.01118891007342527 -0.001113065668785232 -0.0002208619249299386 -0.005811966458831824 -0.004458810082990519 -0.002533974655372205 
0.00558372914367462 0.01825472231104837 -0.002588444797007868 -0.01845656924345984 -0.006916138626690566 -0.002192312147771569 
0.001569824956644438 0.01024371507612054 0.006315433905233294 -0.009653541275082327 -0.006702649112175034 -0.004735139287909322 
-0.008579587470107328 0.002548440619028458 -0.003346673719782939 0.001074682028678618 0.0003417921103643324 0.004551288531048172 
-0.0006037975269193429 -0.008719149085192654 0.003897626667497233 0.004895810414070069 -0.006677920807607121 0.002055609244590847 
0.006882667266945457 -0.006536462771608225 0.003381645035293884 0.004000337369987264 -0.006507328138410813 -0.002697675632496165 
0.006270375740620538 -0.006756980367315244 -0.003927998869345133 0.005135372259584515 -0.001340629176180378 -0.003142147506623112 
0.005371049095819173 -0.009334466532276642 -0.000234299431572257 0.003297873002426029 0.001934460962948792 -0.003335101600921523 
0.009293974597292521 -0.00580506153549623 0.0005311250591353263 -0.002564792926499302 -0.00575503405025521 -0.002046753690224197 
0.01361336752733135 -0.00319358043633087 0.003661509196794552 -0.01041238747470967 -0.004875270021978909 -0.002911344733679648 
0.006301592538863427 -0.003110427684668371 0.002149285702614556 -0.002566283174890913 -0.005266737094336884 -0.001821177214096948 
0.009108687310474846 -0.0131293871623602 -0.005395789801423774 0.006031391184504359 0.006721144376700293 -0.002603487697525545 
-0.001358161334625749 -0.007320070177008764 0.01181386446380126 -0.005386237802976578 -0.008985793460458828 0.002806254677994369 
-0.005913244709973189 -0.01074722901562288 0.001572353935154944 0.001590123957113958 -0.001038085901802265 0.002329306860638624 
-0.01034428905540571 -0.00505868169913449 -0.005600210026024336 0.006545535814731383 -0.004586540525121809 0.0109292882631435 
-0.003809404608116977 7.238670359920648e-05 -0.001473456439408069 -0.005013676421464199 -0.001963562295940587 0.007497433575062786 
0.009402378120799396 -0.004373892977606007 0.001579114901424282 -0.008967890224467256 -0.008473066479791201 0.004421940907025332 
-0.004528912146817399 0.004562077365120498 0.003207105471209056 -0.005864360315341617 -0.007829252025864597 0.002994699392378406 
-0.002927045904550002 0.006912918946480091 -0.002556368214624844 -0.0002319617458805739 -0.0005413113948539839 -0.003233521472119875 
-0.005396749708300703 0.002949928676022655 0.001786087999429975 -0.001934837923072861 -0.0008583150512694868 -0.0007353415480989813 
-0.007190071120190822 -0.001243837875036219 0.01448726047950741 -0.007116147407443339 -0.009235611084099602 0.001927424740881561 
-0.001789022221426603 -0.005835442697865527 -0.0007490841647095009 0.006276152511867516 -0.004598081786916797 0.005704724406454417 
-0.008308332158752554 -0.0009070297181923679 -0.005632368275706275 0.006715462964120908 -0.002265419447962834 0.01113771227686396 
0.0006862899808209477 0.0001609804626677024 -0.006516059854584747 -0.002267425530348911 -0.006897536840419888 0.006983285653724479 
0.01549111655653548 -0.003426551505051982 -0.003605915384884376 -0.005897030534576098 -0.002936875273497714 -0.0007996715911965392 
0.002820968179497136 -0.003060973004705727 -0.003483196241813826 -3.611602036112228e-05 -0.0006001178582915489 0.002758599386604455 
0.002042924508597246 -0.004770521961193075 -0.001293680729298057 -0.0003904772895438581 -0.002896338569077062 0.002727960758749701 
0.003943427626002302 -0.009991126821739983 -0.002811440613771976 0.00682744362659364 0.00857539672631567 -0.0003803850105465702 
0.0003534013191591209 -0.006382229560209607 0.004506512381876667 -0.0008641462692408642 -0.005593416006128326 0.0008564226715433952 
-0.001428383006957335 -0.007894286031891044 -0.008941421350327107 0.01196208547281088 0.004800442536620277 -0.002740955147205303 
-0.003088060526430699 -0.01043992469753885 0.001051092434546935 -0.0004126071824204402 0.009731786079293694 -0.001703792663004041 
0.001683364080365308 -0.01763640477200027 -0.004163927041198437 0.01680207150603188 0.00341872825247194 -0.001143083777202136 
-0.001905097736612017 -0.001711431631350385 0.002354253374112574 -0.006919813215721726 -0.002297211289583076 0.005825347786140864 
-0.006948552196362459 0.003345200276010034 0.002726776958917005 -0.009985011299810399 -0.001048836846189687 0.003261978623202964 
-0.002176627002137868 -0.006956861411807206 -0.0002265856318492908 0.001517832540528267 0.003180074447617397 0.001075527328121641 
-8.419144195202659e-05 -0.000744742899136099 0.002017109052616999 -0.000414112914262529 -0.003923288178723963 0.0006697707894107367 
-0.001911758926978298 0.0005769413042236626 0.006394564670196968 0.001411222491022316 -0.004130130669727894 -0.001670454389119633 
-0.0003603347610303636 0.004197886981598427 -0.001579761702230534 0.002998384025166607 -0.0004164581039428122 -0.001215480911289004 
-0.007074150131334015 -0.0005860390313407823 0.0007495156097084057 -0.00316385484015191 -0.0006384538564273957 0.006961694064566789 
-0.005741597880132373 -0.001091242298113805 -0.003525131284191462 -0.007482238770306685 0.005594310219027864 -0.0005941366141355996 
0.002512266759607795 -0.002453858668107021 0.0003534371120207922 -0.001312524385855338 -0.003755089507588024 -0.0006603447519771763 
-0.001151951888626554 0.002896725417910248 -5.1925103673599e-05 -0.002376527233615863 -0.0002400602594181352 0.0008301852245052703 
-0.001718492318534935 -0.002037129489303261 -0.0009449538937399075 0.004865097988877874 -0.001276198533021611 0.002145140002020749 
-0.007090255824773253 -0.0005601634894413961 -0.003583470613811928 0.006447506010196752 0.00572155381882451 0.003116473755165973 
-0.003681705215763105 -0.005231950417305962 0.0005245438275685361 0.00211076837765944 -0.003277858416986956 0.003263017050363987 
-0.006591080028826564 -0.001986345179606774 -0.0004112121145917658 0.00228659362047847 -0.0005670808046136301 0.002545486938090898 
-0.004977386834755136 -0.0004714711105176267 -0.0005037140204658168 -0.0004360563026220097 0.007028210293946858 -0.001068085271497262 
0.003205415824034487 -0.01057324743029365 -0.002456902975693114 0.005223952619705487 0.006820577146611951 0.001014738869674447 
